{"sizes":[284,142,1],"layers":[{"0":{},"1":{},"2":{},"3":{},"4":{},"5":{},"6":{},"7":{},"8":{},"9":{},"10":{},"11":{},"12":{},"13":{},"14":{},"15":{},"16":{},"17":{},"18":{},"19":{},"20":{},"21":{},"22":{},"23":{},"24":{},"25":{},"26":{},"27":{},"28":{},"29":{},"30":{},"31":{},"32":{},"33":{},"34":{},"35":{},"36":{},"37":{},"38":{},"39":{},"40":{},"41":{},"42":{},"43":{},"44":{},"45":{},"46":{},"47":{},"48":{},"49":{},"50":{},"51":{},"52":{},"53":{},"54":{},"55":{},"56":{},"57":{},"58":{},"59":{},"60":{},"61":{},"62":{},"63":{},"64":{},"65":{},"66":{},"67":{},"68":{},"69":{},"70":{},"71":{},"72":{},"73":{},"74":{},"75":{},"76":{},"77":{},"78":{},"79":{},"80":{},"81":{},"82":{},"83":{},"84":{},"85":{},"86":{},"87":{},"88":{},"89":{},"90":{},"91":{},"92":{},"93":{},"94":{},"95":{},"96":{},"97":{},"98":{},"99":{},"100":{},"101":{},"102":{},"103":{},"104":{},"105":{},"106":{},"107":{},"108":{},"109":{},"110":{},"111":{},"112":{},"113":{},"114":{},"115":{},"116":{},"117":{},"118":{},"119":{},"120":{},"121":{},"122":{},"123":{},"124":{},"125":{},"126":{},"127":{},"128":{},"129":{},"130":{},"131":{},"132":{},"133":{},"134":{},"135":{},"136":{},"137":{},"138":{},"139":{},"140":{},"141":{},"142":{},"143":{},"144":{},"145":{},"146":{},"147":{},"148":{},"149":{},"150":{},"151":{},"152":{},"153":{},"154":{},"155":{},"156":{},"157":{},"158":{},"159":{},"160":{},"161":{},"162":{},"163":{},"164":{},"165":{},"166":{},"167":{},"168":{},"169":{},"170":{},"171":{},"172":{},"173":{},"174":{},"175":{},"176":{},"177":{},"178":{},"179":{},"180":{},"181":{},"182":{},"183":{},"184":{},"185":{},"186":{},"187":{},"188":{},"189":{},"190":{},"191":{},"192":{},"193":{},"194":{},"195":{},"196":{},"197":{},"198":{},"199":{},"200":{},"201":{},"202":{},"203":{},"204":{},"205":{},"206":{},"207":{},"208":{},"209":{},"210":{},"211":{},"212":{},"213":{},"214":{},"215":{},"216":{},"217":{},"218":{},"219":{},"220":{},"221":{},"222":{},"223":{},"224":{},"225":{},"226":{},"227":{},"228":{},"229":{},"230":{},"231":{},"232":{},"233":{},"234":{},"235":{},"236":{},"237":{},"238":{},"239":{},"240":{},"241":{},"242":{},"243":{},"244":{},"245":{},"246":{},"247":{},"248":{},"249":{},"250":{},"251":{},"252":{},"253":{},"254":{},"255":{},"256":{},"257":{},"258":{},"259":{},"260":{},"261":{},"262":{},"263":{},"264":{},"265":{},"266":{},"267":{},"268":{},"269":{},"270":{},"271":{},"272":{},"273":{},"274":{},"275":{},"276":{},"277":{},"278":{},"279":{},"280":{},"281":{},"282":{},"283":{}},{"0":{"bias":-2.1839890480041504,"weights":{"0":-0.12481848895549774,"1":-0.13946539163589478,"2":-0.1934727281332016,"3":-0.03837516903877258,"4":-0.1526222676038742,"5":0.08379072695970535,"6":0.0011313019786030054,"7":-0.10630287975072861,"8":-0.30162540078163147,"9":0.06693949550390244,"10":-0.2806183099746704,"11":-0.15826165676116943,"12":0.1497708261013031,"13":-0.08124107867479324,"14":0.1565384715795517,"15":-0.1700008511543274,"16":-0.05140089988708496,"17":-0.05291435867547989,"18":-0.2623921036720276,"19":0.1589147299528122,"20":-0.31442487239837646,"21":-0.06509451568126678,"22":-0.20185312628746033,"23":-0.05968046933412552,"24":-0.43250054121017456,"25":-0.15411476790905,"26":-0.17511242628097534,"27":0.13862799108028412,"28":-0.06851225346326828,"29":-0.25364670157432556,"30":0.06685637682676315,"31":0.09141559898853302,"32":-0.07924945652484894,"33":-0.21562117338180542,"34":0.01400047168135643,"35":-0.06855573505163193,"36":-0.31502828001976013,"37":-0.12923897802829742,"38":0.16441425681114197,"39":-0.09679008275270462,"40":0.1968265026807785,"41":0.18640418350696564,"42":0.1272943615913391,"43":-0.25734639167785645,"44":0.031222036108374596,"45":-0.1322888880968094,"46":-0.10686052590608597,"47":0.12679226696491241,"48":-0.020691564306616783,"49":-0.06591912358999252,"50":-0.18754109740257263,"51":-0.04165615513920784,"52":0.06415260583162308,"53":-0.06204173341393471,"54":0.11889245361089706,"55":-0.08250652998685837,"56":-0.21483851969242096,"57":-0.055617447942495346,"58":-0.3241632878780365,"59":-0.14307168126106262,"60":-0.03772788867354393,"61":-0.015659796074032784,"62":0.21366681158542633,"63":-0.20855392515659332,"64":-0.11700619012117386,"65":-0.1304137110710144,"66":0.07281101495027542,"67":-0.2627204954624176,"68":-0.16347846388816833,"69":0.06760583072900772,"70":-0.19653229415416718,"71":-0.3114790916442871,"72":-0.23411285877227783,"73":-0.06433432549238205,"74":-0.1153065487742424,"75":-0.11787983030080795,"76":-0.05758005753159523,"77":-0.013397401198744774,"78":-0.040109921246767044,"79":-0.0932682603597641,"80":0.11021982878446579,"81":-0.06886102259159088,"82":-0.17187191545963287,"83":-0.2248208224773407,"84":0.07454591989517212,"85":0.12235716730356216,"86":-0.06570491939783096,"87":-0.22868521511554718,"88":-0.002138765761628747,"89":0.07526406645774841,"90":-0.16897718608379364,"91":0.01963821053504944,"92":0.054546307772397995,"93":0.09981948882341385,"94":0.04469560459256172,"95":-0.13361437618732452,"96":-0.15588945150375366,"97":-0.05872450768947601,"98":-0.14057216048240662,"99":0.09599723666906357,"100":0.04611370712518692,"101":-0.13064414262771606,"102":0.0267789326608181,"103":-0.010551334358751774,"104":-0.08063124120235443,"105":-0.15021266043186188,"106":-0.15205417573451996,"107":-0.2097378820180893,"108":-0.10464757680892944,"109":0.011789396405220032,"110":-0.19305427372455597,"111":-0.1786072850227356,"112":0.0333455465734005,"113":0.028990108519792557,"114":-0.2478877156972885,"115":-0.24673323333263397,"116":0.0440107025206089,"117":-0.28709107637405396,"118":-0.08847900480031967,"119":-0.20393046736717224,"120":-0.22348996996879578,"121":-0.3089633584022522,"122":-0.08470308780670166,"123":-0.12460669130086899,"124":-0.32395708560943604,"125":-0.03969826549291611,"126":-0.22567813098430634,"127":0.11301979422569275,"128":-0.26868513226509094,"129":-0.33132404088974,"130":0.014018452726304531,"131":-0.061850406229496,"132":-0.007554742507636547,"133":0.13467209041118622,"134":0.19395898282527924,"135":0.08224952220916748,"136":-0.023168178275227547,"137":-0.03850260376930237,"138":-0.09181320667266846,"139":0.15476875007152557,"140":-0.009306162595748901,"141":-0.13155798614025116,"142":-0.10145101696252823,"143":-0.13885487616062164,"144":-0.00046076090075075626,"145":-0.11235859990119934,"146":-0.04196625575423241,"147":-0.19174878299236298,"148":-0.03718068078160286,"149":-0.177387535572052,"150":0.0792393609881401,"151":-0.17522557079792023,"152":-0.031435295939445496,"153":0.1380739063024521,"154":-0.2354005128145218,"155":-0.14155511558055878,"156":0.049374938011169434,"157":-0.0879618227481842,"158":0.03632426634430885,"159":-0.2021685540676117,"160":-0.19255198538303375,"161":-0.2018151581287384,"162":-0.2577137351036072,"163":0.05068397894501686,"164":-0.01895967125892639,"165":-0.03352196514606476,"166":-0.14646121859550476,"167":0.06394238024950027,"168":0.12444287538528442,"169":-0.1126198098063469,"170":-0.2582041919231415,"171":0.07094380259513855,"172":-0.07657264173030853,"173":0.12251944839954376,"174":-0.0667216032743454,"175":-0.04084818437695503,"176":-0.05864643678069115,"177":-0.13842013478279114,"178":-0.007277682889252901,"179":-0.1674686223268509,"180":-0.08190176635980606,"181":-0.006979575380682945,"182":-0.07059871405363083,"183":-0.06649109721183777,"184":-0.17723993957042694,"185":-0.1542423665523529,"186":0.08169040083885193,"187":-0.09431923925876617,"188":-0.09894885122776031,"189":-0.053638480603694916,"190":-0.2064310759305954,"191":0.0620395690202713,"192":-0.23274531960487366,"193":-0.15527217090129852,"194":0.06934218853712082,"195":-0.2263507843017578,"196":-0.22708441317081451,"197":-0.06278917193412781,"198":-0.007067021913826466,"199":0.1012745276093483,"200":-0.20814357697963715,"201":-0.030068906024098396,"202":0.01359372865408659,"203":-0.17304445803165436,"204":-0.0042821140959858894,"205":-0.02612253651022911,"206":-0.052960462868213654,"207":-0.18991447985172272,"208":-0.04076479747891426,"209":-0.08081016689538956,"210":0.06439648568630219,"211":0.06520745158195496,"212":-0.19454887509346008,"213":-0.32805532217025757,"214":-0.004081323277205229,"215":-0.02016419731080532,"216":0.10509523749351501,"217":-0.033811524510383606,"218":-0.08290203660726547,"219":-0.2885897755622864,"220":-0.11988615244626999,"221":-0.20309898257255554,"222":-0.2689865529537201,"223":-0.18841294944286346,"224":-0.19461685419082642,"225":-0.2535182535648346,"226":-0.0435238815844059,"227":0.16325566172599792,"228":-0.2999132573604584,"229":-0.18419784307479858,"230":-0.060336507856845856,"231":-0.05713866278529167,"232":-0.09111212193965912,"233":-0.08268089592456818,"234":-0.025757960975170135,"235":-0.09362669289112091,"236":-0.23094309866428375,"237":-0.13025164604187012,"238":-0.02180929109454155,"239":0.05320699140429497,"240":-0.2531273365020752,"241":-0.1666320413351059,"242":0.06529362499713898,"243":-0.02237709052860737,"244":-0.17271660268306732,"245":-0.11155035346746445,"246":-0.22188512980937958,"247":0.059518881142139435,"248":-0.018607133999466896,"249":0.004236126318573952,"250":-0.267804890871048,"251":-0.046792518347501755,"252":-0.2974950671195984,"253":-0.2870774567127228,"254":-0.07404259592294693,"255":-0.08785496652126312,"256":-0.14882469177246094,"257":-0.11955007910728455,"258":-0.1610194444656372,"259":0.00933087058365345,"260":-0.1889273226261139,"261":-0.4204793870449066,"262":-0.131147101521492,"263":-0.2525365650653839,"264":0.13081325590610504,"265":-0.3576335608959198,"266":-0.09788627922534943,"267":-0.10138861835002899,"268":-0.087611623108387,"269":0.04767990484833717,"270":-0.3520113527774811,"271":-0.3028748631477356,"272":-0.012983589433133602,"273":-0.21820738911628723,"274":-0.03650297969579697,"275":-0.2035682052373886,"276":0.15157963335514069,"277":-0.18724282085895538,"278":-0.05365348979830742,"279":-0.03993283584713936,"280":0.08865979313850403,"281":0.0057589407078921795,"282":0.19549262523651123,"283":-0.18719926476478577}},"1":{"bias":-2.1500749588012695,"weights":{"0":-0.2289624810218811,"1":0.06407926976680756,"2":0.010300014168024063,"3":0.015303028747439384,"4":-0.2500389516353607,"5":-0.07889729738235474,"6":-0.19710683822631836,"7":-0.31777068972587585,"8":-0.16055253148078918,"9":-0.06695173680782318,"10":-0.2608424425125122,"11":0.09306659549474716,"12":-0.298683762550354,"13":0.0233062244951725,"14":-0.1499841958284378,"15":-0.22556281089782715,"16":0.017698783427476883,"17":-0.30205756425857544,"18":-0.17579801380634308,"19":-0.070092111825943,"20":-0.21658432483673096,"21":-0.328520804643631,"22":-0.17530721426010132,"23":-0.18246106803417206,"24":-0.1888929158449173,"25":-0.14125026762485504,"26":-0.11484075337648392,"27":0.041408807039260864,"28":-0.24340656399726868,"29":-0.11977067589759827,"30":-0.2502543330192566,"31":0.06920129060745239,"32":-0.10902851819992065,"33":0.006808418780565262,"34":0.03289958834648132,"35":0.10728885978460312,"36":0.12992407381534576,"37":-0.10479053854942322,"38":-0.3734019994735718,"39":-0.09918492287397385,"40":0.0008280777838081121,"41":-0.1855006217956543,"42":-0.01094474084675312,"43":-0.05305264890193939,"44":-0.17580044269561768,"45":-0.1495785266160965,"46":-0.08602464199066162,"47":-0.026996588334441185,"48":-0.06569243222475052,"49":0.019972890615463257,"50":-0.1183960884809494,"51":0.06762505322694778,"52":0.22998708486557007,"53":-0.22745011746883392,"54":0.10464517027139664,"55":0.07892916351556778,"56":-0.12155812978744507,"57":-0.1312887817621231,"58":0.05101524293422699,"59":-0.12208213657140732,"60":-0.17936798930168152,"61":0.08791101723909378,"62":0.09716051071882248,"63":0.16277636587619781,"64":-0.24796992540359497,"65":-0.04571838676929474,"66":-0.023719660937786102,"67":-0.05760263651609421,"68":-0.08690573275089264,"69":0.0002398119104327634,"70":-0.19830895960330963,"71":-0.47248467803001404,"72":0.02988850697875023,"73":-0.17889322340488434,"74":-0.13988655805587769,"75":0.10141400247812271,"76":0.011314000934362411,"77":-0.04299439489841461,"78":-0.2334541380405426,"79":-0.00028610226581804454,"80":-0.0907321497797966,"81":-0.007925036363303661,"82":-0.22227106988430023,"83":-0.1068849191069603,"84":0.003935475368052721,"85":0.08669381588697433,"86":-0.1383964568376541,"87":-0.2638787031173706,"88":0.09514518082141876,"89":-0.104123055934906,"90":-0.06985227763652802,"91":-0.18797998130321503,"92":-0.004776317160576582,"93":0.04285966604948044,"94":-0.16067831218242645,"95":-0.21581991016864777,"96":-0.09358897805213928,"97":-0.3192758560180664,"98":-0.09012023359537125,"99":0.12262482196092606,"100":-0.09052625298500061,"101":-0.13652285933494568,"102":0.0894518792629242,"103":-0.03285034000873566,"104":-0.12339625507593155,"105":0.04869876429438591,"106":-0.2178184688091278,"107":-0.06610706448554993,"108":-0.24389035999774933,"109":-0.27162033319473267,"110":0.04250628501176834,"111":-0.3577903211116791,"112":0.10870238393545151,"113":0.005528496112674475,"114":-0.2038218230009079,"115":-0.14451910555362701,"116":-0.06992676854133606,"117":-0.2672577500343323,"118":0.11940586566925049,"119":-0.25846147537231445,"120":-0.16434475779533386,"121":-0.23006409406661987,"122":0.01631743647158146,"123":-0.14812664687633514,"124":-0.08434930443763733,"125":-0.09461092203855515,"126":-0.22629408538341522,"127":-0.23892292380332947,"128":-0.07500400394201279,"129":-0.31934189796447754,"130":-0.1525261551141739,"131":-0.1412876844406128,"132":-0.0032052055466920137,"133":-0.13629789650440216,"134":-0.0017116139642894268,"135":0.01854485273361206,"136":-0.07480635493993759,"137":-0.1199275553226471,"138":-0.16111250221729279,"139":0.04073607921600342,"140":0.042019814252853394,"141":-0.12397505342960358,"142":-0.11964808404445648,"143":0.02092614769935608,"144":-0.1332605481147766,"145":-0.005776689387857914,"146":-0.1440286785364151,"147":-0.1712000072002411,"148":0.046501196920871735,"149":0.12263016402721405,"150":-0.15182451903820038,"151":-0.055397436022758484,"152":-0.13485246896743774,"153":0.06708946824073792,"154":0.2044399529695511,"155":-0.10283520817756653,"156":0.09280386567115784,"157":0.001050769118592143,"158":-0.22976422309875488,"159":-0.03904842957854271,"160":-0.3467164933681488,"161":0.15552009642124176,"162":-0.1660378873348236,"163":0.03881153091788292,"164":-0.08314777165651321,"165":-0.004310194402933121,"166":-0.3176077604293823,"167":0.032599177211523056,"168":0.05598073825240135,"169":0.013215340673923492,"170":-0.0034352883230894804,"171":0.17925287783145905,"172":0.0049490234814584255,"173":0.022840149700641632,"174":0.03530322387814522,"175":-0.1682441681623459,"176":0.05652571842074394,"177":-0.0016691179480403662,"178":-0.0689079612493515,"179":0.19213475286960602,"180":-0.07757119834423065,"181":-0.03216297924518585,"182":-0.07885336875915527,"183":0.14539526402950287,"184":-0.13215932250022888,"185":-0.2319970577955246,"186":0.008624491281807423,"187":-0.10634202510118484,"188":-0.011107992380857468,"189":-0.02741266041994095,"190":-0.050219569355249405,"191":-0.08992273360490799,"192":-0.14638547599315643,"193":-0.08123070001602173,"194":-0.20491617918014526,"195":-0.09835898131132126,"196":-0.08164634555578232,"197":-0.17098437249660492,"198":-0.13099108636379242,"199":-0.2331056445837021,"200":-0.3170006573200226,"201":0.052941806614398956,"202":-0.0795440599322319,"203":0.20304939150810242,"204":-0.10865319520235062,"205":-0.022623803466558456,"206":-0.2101970911026001,"207":-0.17277878522872925,"208":-0.09886772930622101,"209":-0.24137438833713531,"210":-0.15961883962154388,"211":0.00289224274456501,"212":-0.26944151520729065,"213":-0.03583397716283798,"214":-0.17453129589557648,"215":-0.21819747984409332,"216":0.07336218655109406,"217":-0.16888034343719482,"218":-0.4620017409324646,"219":0.040348950773477554,"220":-0.005487287417054176,"221":-0.27432751655578613,"222":0.04335557296872139,"223":-0.07574690878391266,"224":-0.06002023443579674,"225":-0.2520032227039337,"226":-0.2864254415035248,"227":0.006291729863733053,"228":-0.00639363331720233,"229":-0.06369966268539429,"230":-0.3620985746383667,"231":-0.18517591059207916,"232":-0.15157374739646912,"233":0.0695480927824974,"234":0.22456182539463043,"235":0.05629444494843483,"236":0.03347194194793701,"237":0.06535865366458893,"238":-0.03854469954967499,"239":0.10984638333320618,"240":-0.34856781363487244,"241":-0.06608268618583679,"242":-0.01589070074260235,"243":-0.23860426247119904,"244":-0.02144177444279194,"245":-0.16892872750759125,"246":0.08397835493087769,"247":-0.10509485006332397,"248":-0.09214743226766586,"249":0.012082350440323353,"250":0.06435169279575348,"251":0.11194206029176712,"252":-0.009314020164310932,"253":-0.09772392362356186,"254":-0.14014528691768646,"255":-0.09790264815092087,"256":-0.4506414234638214,"257":-0.005193854682147503,"258":-0.002596270991489291,"259":-0.10737957805395126,"260":-0.054663415998220444,"261":-0.537113606929779,"262":-0.26592907309532166,"263":-0.26740747690200806,"264":-0.11797519773244858,"265":-0.09827034175395966,"266":0.12104854732751846,"267":-0.17708104848861694,"268":-0.03030998632311821,"269":-0.05368095636367798,"270":-0.21289865672588348,"271":-0.2388458549976349,"272":0.0175875686109066,"273":-0.15981869399547577,"274":-0.3013993799686432,"275":-0.09318902343511581,"276":0.08809617906808853,"277":0.25151941180229187,"278":-0.1748875081539154,"279":-0.00786995142698288,"280":-0.17214423418045044,"281":0.2175692766904831,"282":0.055640365928411484,"283":-0.36086854338645935}},"2":{"bias":-2.1672377586364746,"weights":{"0":-0.20346786081790924,"1":0.018902242183685303,"2":-0.24060603976249695,"3":-0.17393536865711212,"4":-0.28358691930770874,"5":-0.2566869556903839,"6":-0.16029483079910278,"7":-0.25866076350212097,"8":-0.09905026853084564,"9":-0.05966360121965408,"10":-0.24986261129379272,"11":-0.22853390872478485,"12":-0.13620834052562714,"13":-0.23036342859268188,"14":0.028544753789901733,"15":-0.18439286947250366,"16":-0.11142531782388687,"17":-0.2962570786476135,"18":-0.21593411266803741,"19":-0.008135363459587097,"20":0.03129461035132408,"21":-0.2862330675125122,"22":-0.15299752354621887,"23":-0.16279612481594086,"24":-0.33510664105415344,"25":-0.18235202133655548,"26":-0.025956396013498306,"27":-0.06385982036590576,"28":0.04259137064218521,"29":-0.06575068831443787,"30":-0.2584739327430725,"31":0.08370919525623322,"32":0.11133094131946564,"33":0.19055788218975067,"34":-0.12276361137628555,"35":-0.30971214175224304,"36":-0.194638192653656,"37":-0.18762318789958954,"38":-0.3057883679866791,"39":-0.005960229318588972,"40":0.05792306363582611,"41":-0.18440748751163483,"42":-0.0489794984459877,"43":-0.06156831607222557,"44":-0.023807264864444733,"45":-0.17495456337928772,"46":-0.3556464612483978,"47":-0.20667889714241028,"48":-0.187113419175148,"49":-0.11823568493127823,"50":0.020756160840392113,"51":-0.11403042078018188,"52":-0.07238047569990158,"53":-0.1718176007270813,"54":0.12750588357448578,"55":-0.0388239324092865,"56":0.072176992893219,"57":0.00968711543828249,"58":0.0521225705742836,"59":-0.04989302158355713,"60":-0.2686121463775635,"61":-0.027779830619692802,"62":0.1576031893491745,"63":-0.1739749014377594,"64":-0.09673804044723511,"65":-0.005594512913376093,"66":-0.30095160007476807,"67":-0.11719119548797607,"68":-0.22947175800800323,"69":-0.19939854741096497,"70":0.093742735683918,"71":-0.282296746969223,"72":0.02972463332116604,"73":0.09246844798326492,"74":-0.14078955352306366,"75":-0.025439994409680367,"76":0.06466040015220642,"77":0.11170607060194016,"78":-0.21901322901248932,"79":-0.16983544826507568,"80":-0.10530483722686768,"81":0.10664902627468109,"82":-0.1833760142326355,"83":-0.2368520349264145,"84":-0.20764300227165222,"85":0.17474722862243652,"86":-0.08026058971881866,"87":-0.23207691311836243,"88":-0.05547119677066803,"89":0.034967198967933655,"90":-0.08468242734670639,"91":-0.026055075228214264,"92":-0.20260684192180634,"93":0.0829584151506424,"94":-0.15239344537258148,"95":0.0992264375090599,"96":-0.04108341410756111,"97":-0.24795159697532654,"98":0.11865019798278809,"99":0.11624451726675034,"100":0.07883680611848831,"101":-0.17003114521503448,"102":0.13536879420280457,"103":0.05738029256463051,"104":-0.03866320848464966,"105":0.0019889227114617825,"106":-0.14795014262199402,"107":-0.0015638896729797125,"108":-0.16825778782367706,"109":-0.1851349025964737,"110":-0.06337633728981018,"111":-0.2336154282093048,"112":0.021068228408694267,"113":0.050208110362291336,"114":-0.3239300847053528,"115":0.051466844975948334,"116":-0.1074766218662262,"117":-0.24104933440685272,"118":-0.20458658039569855,"119":-0.0841694250702858,"120":-0.14431343972682953,"121":0.08032985031604767,"122":0.06266307085752487,"123":-0.2697709798812866,"124":-0.27333465218544006,"125":0.1535053551197052,"126":-0.04064381495118141,"127":-0.18687225878238678,"128":-0.12912702560424805,"129":0.13669787347316742,"130":-0.00945720262825489,"131":-0.06921273469924927,"132":0.14316241443157196,"133":-0.15969744324684143,"134":-0.14636990427970886,"135":-0.07844777405261993,"136":-0.11661748588085175,"137":-0.033553894609212875,"138":-0.10363393276929855,"139":-0.15063869953155518,"140":-0.08516190201044083,"141":-0.3189508616924286,"142":-0.043329644948244095,"143":-0.027035854756832123,"144":0.21454699337482452,"145":-0.007401378359645605,"146":-0.17096447944641113,"147":0.14529478549957275,"148":-0.04369677975773811,"149":-0.04972478747367859,"150":-0.0413113534450531,"151":-0.051378123462200165,"152":-0.21945272386074066,"153":0.07905770093202591,"154":0.16351282596588135,"155":-0.1494828164577484,"156":0.20971274375915527,"157":-0.19881123304367065,"158":-0.13271193206310272,"159":0.08742064982652664,"160":-0.14576278626918793,"161":0.17047448456287384,"162":-0.45505231618881226,"163":-0.0075708357617259026,"164":-0.38521918654441833,"165":-0.03221122547984123,"166":-0.277445912361145,"167":-0.20071600377559662,"168":-0.2010537087917328,"169":0.18725872039794922,"170":-0.1757839173078537,"171":-0.23102045059204102,"172":-0.1681869626045227,"173":-0.2837162911891937,"174":-0.07817491888999939,"175":-0.2900976240634918,"176":-0.18368910253047943,"177":0.008656930178403854,"178":-0.23680520057678223,"179":0.10852766782045364,"180":0.20147676765918732,"181":-0.049424175173044205,"182":-0.20538583397865295,"183":0.14985261857509613,"184":0.17894306778907776,"185":0.08311095833778381,"186":-0.09496669471263885,"187":-0.15003597736358643,"188":-0.10660445690155029,"189":0.07486288994550705,"190":-0.10368020832538605,"191":-0.1694510132074356,"192":-0.13759660720825195,"193":-0.09816805273294449,"194":-0.1426619589328766,"195":-0.08066776394844055,"196":-0.30933842062950134,"197":0.2534898519515991,"198":-0.08766917139291763,"199":-0.2900896370410919,"200":-0.43706411123275757,"201":-0.22993513941764832,"202":-0.08914794772863388,"203":-0.07708904147148132,"204":0.08281107246875763,"205":0.15034139156341553,"206":-0.21957914531230927,"207":-0.09453082829713821,"208":0.02567269466817379,"209":-0.0956428200006485,"210":0.11908181756734848,"211":0.08940619230270386,"212":0.030413974076509476,"213":-0.05617503821849823,"214":-0.21109478175640106,"215":-0.22724111378192902,"216":-0.09723217785358429,"217":0.030142467468976974,"218":-0.3855283558368683,"219":-0.1192144826054573,"220":-0.06984440237283707,"221":-0.1123310774564743,"222":-0.0003763530985452235,"223":-0.08263667672872543,"224":0.04821574315428734,"225":-0.17476534843444824,"226":-0.1467331498861313,"227":-0.17133784294128418,"228":-0.11975754797458649,"229":-0.20868897438049316,"230":-0.3576470911502838,"231":0.003860658500343561,"232":-0.05517842620611191,"233":-0.03182132542133331,"234":0.018323088064789772,"235":-0.1127539873123169,"236":-0.1376759260892868,"237":0.04579946771264076,"238":-0.33747008442878723,"239":0.10111010819673538,"240":-0.2972283959388733,"241":-0.012542353942990303,"242":-0.02777855284512043,"243":-0.28355589509010315,"244":-0.10972696542739868,"245":0.06697992980480194,"246":0.017647771164774895,"247":-0.34639886021614075,"248":-0.12723925709724426,"249":-0.0766720250248909,"250":-0.10738919675350189,"251":0.11617247015237808,"252":-0.14315912127494812,"253":-0.16454239189624786,"254":0.004371913615614176,"255":0.0819830372929573,"256":-0.29637154936790466,"257":-0.21257510781288147,"258":-0.18313804268836975,"259":-0.19018787145614624,"260":0.07682990282773972,"261":-0.17070744931697845,"262":-0.24378548562526703,"263":-0.32340508699417114,"264":0.006998029537498951,"265":-0.1513063609600067,"266":-0.2861805558204651,"267":-0.13213345408439636,"268":-0.27023938298225403,"269":-0.14124912023544312,"270":-0.11056060343980789,"271":-0.2645198702812195,"272":0.1319347321987152,"273":-0.23224669694900513,"274":-0.03437480702996254,"275":-0.03570429980754852,"276":0.0474630668759346,"277":0.100031279027462,"278":0.021288596093654633,"279":-0.06141981855034828,"280":-0.19919241964817047,"281":0.042469050735235214,"282":-0.06159118562936783,"283":-0.26862624287605286}},"3":{"bias":-2.229668140411377,"weights":{"0":-0.07360869646072388,"1":-0.1609465628862381,"2":-0.1648242026567459,"3":0.13795168697834015,"4":0.0342748686671257,"5":-0.1687108427286148,"6":-0.028513062745332718,"7":0.01586764305830002,"8":-0.21027569472789764,"9":0.1390760838985443,"10":-0.29994869232177734,"11":-0.08457012474536896,"12":-0.27627965807914734,"13":-0.007224073633551598,"14":0.08924289792776108,"15":-0.24017654359340668,"16":-0.2670871913433075,"17":-0.19162948429584503,"18":-0.10188481211662292,"19":-0.055234331637620926,"20":-0.07607600837945938,"21":-0.10122522711753845,"22":-0.1454761028289795,"23":-0.05909810587763786,"24":-0.3850879371166229,"25":0.036108825355768204,"26":-0.08479929715394974,"27":0.07583767920732498,"28":-0.1309337466955185,"29":0.07061374187469482,"30":-0.11372246593236923,"31":0.10569200664758682,"32":-0.02778198942542076,"33":0.0224007461220026,"34":-0.18802285194396973,"35":0.033292919397354126,"36":-0.15423820912837982,"37":-0.01604970172047615,"38":-0.12718848884105682,"39":0.013234534300863743,"40":0.054023317992687225,"41":-0.03238176926970482,"42":-0.1210397332906723,"43":-0.11867913603782654,"44":-0.10505986958742142,"45":-0.2852439880371094,"46":-0.11152216792106628,"47":-0.24846450984477997,"48":0.11385202407836914,"49":-0.15293873846530914,"50":-0.033253878355026245,"51":0.049334973096847534,"52":-0.2021946907043457,"53":-0.1324073225259781,"54":0.02162778005003929,"55":-0.03474488481879234,"56":-0.08787519484758377,"57":-0.17711271345615387,"58":-0.07365872710943222,"59":-0.2879750728607178,"60":0.04687398299574852,"61":0.1829349547624588,"62":-0.2009972184896469,"63":0.002977783791720867,"64":-0.04870389401912689,"65":-0.0024306033737957478,"66":-0.16838183999061584,"67":-0.1520698070526123,"68":0.07576265931129456,"69":-0.09646191447973251,"70":-0.06114409118890762,"71":-0.20849566161632538,"72":0.06752395629882812,"73":-0.042175598442554474,"74":-0.26570701599121094,"75":-0.20379433035850525,"76":-0.20976515114307404,"77":-0.17052297294139862,"78":0.05915543809533119,"79":0.05155593529343605,"80":-0.13640062510967255,"81":-0.1530689150094986,"82":-0.247081458568573,"83":-0.21514806151390076,"84":0.044353414326906204,"85":-0.1721465289592743,"86":-0.017263803631067276,"87":-0.22561763226985931,"88":-0.0735875815153122,"89":0.0774480402469635,"90":-0.15087173879146576,"91":-0.05536535009741783,"92":0.10789964348077774,"93":0.10840387642383575,"94":-0.1492060124874115,"95":0.04060100391507149,"96":-0.19880013167858124,"97":-0.1754617840051651,"98":-0.08071886003017426,"99":-0.09897126257419586,"100":-0.15501730144023895,"101":-0.3443250060081482,"102":0.004164564423263073,"103":0.0464879535138607,"104":-0.1736842542886734,"105":-0.0028283833526074886,"106":0.06518665701150894,"107":0.14840516448020935,"108":0.006881327833980322,"109":-0.08276490122079849,"110":-0.1556534469127655,"111":-0.15748031437397003,"112":-0.21097750961780548,"113":-0.02279142662882805,"114":-0.2098749428987503,"115":-0.1208101138472557,"116":-0.023440757766366005,"117":0.11833000928163528,"118":-0.17406855523586273,"119":-0.12369212508201599,"120":-0.006457213312387466,"121":-0.4447890818119049,"122":0.07731758803129196,"123":-0.21733495593070984,"124":-0.25935807824134827,"125":-0.11275849491357803,"126":-0.1720060110092163,"127":-0.04784749820828438,"128":-0.22410613298416138,"129":0.15124322474002838,"130":-0.07160542160272598,"131":-0.02913912758231163,"132":-0.30295076966285706,"133":0.008964607492089272,"134":0.003909067250788212,"135":0.1392180621623993,"136":0.09415663778781891,"137":-0.024692034348845482,"138":-0.20032216608524323,"139":-0.1456138640642166,"140":-0.14087580144405365,"141":-0.3456662893295288,"142":0.08785206079483032,"143":-0.12931357324123383,"144":-0.0824221819639206,"145":0.12704214453697205,"146":-0.06108606606721878,"147":0.03804467245936394,"148":-0.005860750563442707,"149":-0.0530431903898716,"150":-0.28496623039245605,"151":-0.03793616220355034,"152":-0.22499099373817444,"153":0.006487250793725252,"154":0.047233350574970245,"155":-0.08920008689165115,"156":0.022001178935170174,"157":-0.21728497743606567,"158":-0.015316488221287727,"159":-0.03668529912829399,"160":-0.24051162600517273,"161":0.1438980996608734,"162":-0.28864845633506775,"163":-0.17534416913986206,"164":-0.30499550700187683,"165":-0.2885076701641083,"166":-0.35262471437454224,"167":-0.174893319606781,"168":-0.18133015930652618,"169":-0.1381230503320694,"170":0.07178524136543274,"171":0.06919370591640472,"172":-0.10752797871828079,"173":0.01913188397884369,"174":-0.0641181617975235,"175":-0.1544206142425537,"176":0.10577445477247238,"177":-0.20197787880897522,"178":-0.1961212307214737,"179":0.09706348180770874,"180":-0.2602342963218689,"181":-0.22796519100666046,"182":0.11504209041595459,"183":0.1872503012418747,"184":0.146223783493042,"185":-0.174380362033844,"186":-0.031617168337106705,"187":-0.04834568127989769,"188":-0.04321838915348053,"189":-0.13426759839057922,"190":-0.17519572377204895,"191":0.12799182534217834,"192":-0.13966453075408936,"193":-0.21642270684242249,"194":0.09503201395273209,"195":0.028823230415582657,"196":-0.016940094530582428,"197":0.16913887858390808,"198":-0.05297602713108063,"199":-0.16164962947368622,"200":-0.2950877547264099,"201":-0.21998244524002075,"202":0.10710515081882477,"203":-0.14707310497760773,"204":0.0974898487329483,"205":0.12124626338481903,"206":0.002045547589659691,"207":-0.10375538468360901,"208":-0.09131665527820587,"209":-0.06399871408939362,"210":0.08556121587753296,"211":0.12663178145885468,"212":-0.0857633426785469,"213":-0.015760164707899094,"214":0.12409522384405136,"215":-0.06900764256715775,"216":-0.2306808978319168,"217":-0.10949666053056717,"218":-0.4606195092201233,"219":-0.09026555716991425,"220":-0.008067119866609573,"221":-0.06783240288496017,"222":-0.04751027002930641,"223":-0.13656631112098694,"224":0.05053374916315079,"225":-0.07906914502382278,"226":-0.08995708078145981,"227":-0.035088811069726944,"228":-0.25852054357528687,"229":-0.26720720529556274,"230":-0.08798882365226746,"231":0.03284114971756935,"232":-0.11648859828710556,"233":0.06241106241941452,"234":0.10079463571310043,"235":0.007947900332510471,"236":-0.05369630455970764,"237":-0.012718252837657928,"238":0.03879116475582123,"239":-0.023885441944003105,"240":-0.30878114700317383,"241":-0.19042539596557617,"242":0.10483284294605255,"243":-0.275200754404068,"244":-0.15280374884605408,"245":-0.08306694030761719,"246":-0.10868129134178162,"247":-0.06876472383737564,"248":-0.03395964577794075,"249":-0.06627251207828522,"250":-0.231192484498024,"251":0.09841183573007584,"252":-0.06432576477527618,"253":-0.0756639838218689,"254":0.13420139253139496,"255":-0.14131547510623932,"256":-0.20897448062896729,"257":-0.17111054062843323,"258":-0.08806855976581573,"259":0.10779018700122833,"260":-0.11848309636116028,"261":-0.2423967719078064,"262":-0.16815756261348724,"263":-0.24909940361976624,"264":0.049502819776535034,"265":-0.13383376598358154,"266":-0.2414444237947464,"267":-0.15405072271823883,"268":-0.054769475013017654,"269":0.02918943017721176,"270":-0.22776754200458527,"271":-0.22525852918624878,"272":-0.14963239431381226,"273":0.0684085488319397,"274":0.028808563947677612,"275":-0.04498819634318352,"276":-0.05053747072815895,"277":0.188781276345253,"278":-0.31123828887939453,"279":-0.14566974341869354,"280":0.07744686305522919,"281":0.13757061958312988,"282":0.11789402365684509,"283":-0.2064623385667801}},"4":{"bias":-2.1854300498962402,"weights":{"0":-0.003453194862231612,"1":0.10171163082122803,"2":-0.1599312126636505,"3":0.0931468978524208,"4":-0.017429683357477188,"5":0.109276182949543,"6":-0.020415842533111572,"7":0.05688509717583656,"8":-0.049907512962818146,"9":0.08209121227264404,"10":-0.20830285549163818,"11":-0.23545074462890625,"12":-0.025912409648299217,"13":-0.12772473692893982,"14":-0.16143999993801117,"15":-0.24792338907718658,"16":-0.05275734141469002,"17":-0.1468338668346405,"18":-0.09516112506389618,"19":0.1544911116361618,"20":-0.2616545557975769,"21":0.13225291669368744,"22":-0.3067377805709839,"23":0.012907455675303936,"24":-0.26975101232528687,"25":-0.079838328063488,"26":-0.20897497236728668,"27":-0.01583584025502205,"28":-0.16120639443397522,"29":0.02985045313835144,"30":0.045810189098119736,"31":-0.0341767743229866,"32":-0.2981405258178711,"33":-0.05437934398651123,"34":-0.2387567013502121,"35":-0.3467549979686737,"36":-0.2570516765117645,"37":0.11060447245836258,"38":0.17203392088413239,"39":-0.014866786077618599,"40":-0.16542647778987885,"41":-0.13416077196598053,"42":0.1290477067232132,"43":-0.017281832173466682,"44":-0.3488982915878296,"45":-0.07779406756162643,"46":-0.0446760468184948,"47":-0.23238568007946014,"48":-0.27101218700408936,"49":-0.06992658227682114,"50":0.08056323230266571,"51":-0.19442209601402283,"52":0.0647549256682396,"53":-0.03278162330389023,"54":-0.0973755270242691,"55":-0.11027694493532181,"56":-0.20970338582992554,"57":-0.3184722363948822,"58":-0.3078838884830475,"59":-0.1469167321920395,"60":-0.33425313234329224,"61":-0.2685215473175049,"62":-0.09832248091697693,"63":-0.015366867184638977,"64":-0.1770627796649933,"65":-0.14761938154697418,"66":0.1921042501926422,"67":0.0029178026597946882,"68":-0.2362537384033203,"69":-0.07992586493492126,"70":-0.10505755990743637,"71":-0.053923338651657104,"72":-0.1061420813202858,"73":-0.07721152901649475,"74":0.15069818496704102,"75":0.010907498188316822,"76":-0.48248642683029175,"77":-0.2869430184364319,"78":-0.010403812862932682,"79":-0.35394594073295593,"80":-0.19504520297050476,"81":-0.07557924091815948,"82":-0.23273050785064697,"83":-0.47485846281051636,"84":-0.10719912499189377,"85":-0.3447510600090027,"86":-0.004973036702722311,"87":-0.2513108551502228,"88":-0.17370744049549103,"89":-0.01028874609619379,"90":-0.060765285044908524,"91":-0.0025085124652832747,"92":0.11398372054100037,"93":-0.02111930400133133,"94":-0.024744311347603798,"95":-0.214560866355896,"96":-0.21005591750144958,"97":0.0463423952460289,"98":-0.25472089648246765,"99":0.06094236671924591,"100":0.03782094642519951,"101":-0.26684409379959106,"102":0.0615786574780941,"103":-0.17985498905181885,"104":-0.09227853268384933,"105":-0.0043236082419753075,"106":0.06304305791854858,"107":-0.16705536842346191,"108":-0.12220282852649689,"109":-0.24623848497867584,"110":-0.29799985885620117,"111":-0.21413449943065643,"112":0.14902962744235992,"113":0.08689817786216736,"114":-0.5051673650741577,"115":-0.14736506342887878,"116":0.14092883467674255,"117":-0.025649549439549446,"118":0.0030481084249913692,"119":-0.24342215061187744,"120":-0.19256174564361572,"121":-0.22579698264598846,"122":0.20848922431468964,"123":-0.43316251039505005,"124":-0.16649319231510162,"125":-0.26665133237838745,"126":-0.1939343959093094,"127":0.11202066391706467,"128":-0.082624152302742,"129":-0.2930503487586975,"130":0.09165322035551071,"131":-0.20629876852035522,"132":-0.11471681296825409,"133":-0.046612564474344254,"134":0.002091134199872613,"135":-0.1243753731250763,"136":0.05887859687209129,"137":-0.22962269186973572,"138":0.03690829128026962,"139":0.0896041989326477,"140":0.18090972304344177,"141":-0.05810781940817833,"142":0.13148580491542816,"143":0.08143053948879242,"144":-0.25477445125579834,"145":-0.07807205617427826,"146":-0.28203997015953064,"147":-0.049844805151224136,"148":-0.20944668352603912,"149":-0.34351012110710144,"150":0.11351417750120163,"151":0.10769760608673096,"152":-0.12509800493717194,"153":-0.20894202589988708,"154":-0.14944368600845337,"155":0.11761084198951721,"156":-0.07063232362270355,"157":0.01555854082107544,"158":-0.12405859678983688,"159":0.04773838818073273,"160":0.08840996026992798,"161":-0.02596556767821312,"162":-0.25247839093208313,"163":-0.3066239058971405,"164":0.0011922448175027966,"165":-0.21153506636619568,"166":-0.15956920385360718,"167":0.029522420838475227,"168":0.12787555158138275,"169":-0.15408065915107727,"170":0.12167773395776749,"171":0.11812508851289749,"172":-0.24002520740032196,"173":0.0019892742857337,"174":-0.043134696781635284,"175":-0.06952492147684097,"176":-0.19989442825317383,"177":0.09010294079780579,"178":0.1557518094778061,"179":-0.24413104355335236,"180":-0.147169291973114,"181":-0.2336091846227646,"182":0.12579745054244995,"183":-0.07769756019115448,"184":-0.0720759704709053,"185":-0.22236795723438263,"186":0.012190697714686394,"187":-0.036337997764348984,"188":-0.12442748248577118,"189":-0.15268759429454803,"190":-0.03075915016233921,"191":-0.053543444722890854,"192":-0.0007221422856673598,"193":-0.047477301210165024,"194":0.14469578862190247,"195":-0.17682147026062012,"196":0.0611385777592659,"197":-0.09679759293794632,"198":-0.16454993188381195,"199":-0.028419360518455505,"200":-0.2501213848590851,"201":-0.2977237403392792,"202":-0.05143126845359802,"203":-0.13629411160945892,"204":-0.10005000978708267,"205":0.1015039011836052,"206":0.09209373593330383,"207":-0.019923673942685127,"208":-0.26203128695487976,"209":0.08566901087760925,"210":-0.006554136518388987,"211":-0.05353140830993652,"212":-0.25316640734672546,"213":-0.10315322875976562,"214":0.11851781606674194,"215":0.11912596225738525,"216":-0.0505509190261364,"217":-0.13836517930030823,"218":-0.11180689930915833,"219":0.02578897960484028,"220":0.2314174324274063,"221":-0.22957883775234222,"222":-0.21698050200939178,"223":-0.08410228043794632,"224":-0.24385114014148712,"225":-0.11253345757722855,"226":-0.17321860790252686,"227":0.11370337754487991,"228":0.13157051801681519,"229":-0.042024679481983185,"230":-0.11238451302051544,"231":-0.03326942026615143,"232":-0.20895417034626007,"233":-0.09158498048782349,"234":-0.03274809569120407,"235":0.1340036690235138,"236":-0.07708480954170227,"237":-0.2643437087535858,"238":0.10791586339473724,"239":0.009203951805830002,"240":0.03476967662572861,"241":0.17839618027210236,"242":-0.0895715206861496,"243":-0.15864017605781555,"244":-0.23773141205310822,"245":0.08379924297332764,"246":0.023351101204752922,"247":0.12692861258983612,"248":-0.1808207482099533,"249":0.13934186100959778,"250":-0.11999417841434479,"251":-0.0997387021780014,"252":-0.060734301805496216,"253":-0.35200798511505127,"254":-0.021881261840462685,"255":-0.05139970779418945,"256":-0.16728802025318146,"257":-0.207800030708313,"258":-0.02822919376194477,"259":-0.06428848206996918,"260":-0.1523325890302658,"261":-0.40531909465789795,"262":-0.05396474525332451,"263":-0.012807146646082401,"264":0.03905469551682472,"265":-0.1823902726173401,"266":-0.08775697648525238,"267":-0.17711474001407623,"268":-0.16822336614131927,"269":0.04668806493282318,"270":-0.01125792320817709,"271":0.14076247811317444,"272":0.031088728457689285,"273":-0.1297309398651123,"274":-0.0096812192350626,"275":-0.12342063337564468,"276":-0.005304341204464436,"277":0.03418956324458122,"278":0.0328892283141613,"279":-0.24625447392463684,"280":0.005418907385319471,"281":-0.19187313318252563,"282":0.1304393708705902,"283":-0.16331203281879425}},"5":{"bias":-2.226065158843994,"weights":{"0":-0.053066957741975784,"1":0.06913894414901733,"2":0.004090914502739906,"3":-0.04446966201066971,"4":-0.21643580496311188,"5":0.008538824506103992,"6":-0.303335577249527,"7":-0.19696173071861267,"8":-0.015431810170412064,"9":0.10715983808040619,"10":0.004382980987429619,"11":-0.31255844235420227,"12":-0.04706236720085144,"13":-0.24287760257720947,"14":-0.06190744787454605,"15":0.05716101825237274,"16":-0.011227590963244438,"17":-0.16463319957256317,"18":-0.09681117534637451,"19":-0.19915756583213806,"20":-0.05389188230037689,"21":-0.19221027195453644,"22":-0.19718027114868164,"23":-0.12422829121351242,"24":-0.10807746648788452,"25":0.12132856249809265,"26":-0.01142131071537733,"27":-0.25035375356674194,"28":-0.08363895118236542,"29":0.24008971452713013,"30":-0.15748068690299988,"31":0.021608702838420868,"32":-0.021545054391026497,"33":0.01299647893756628,"34":0.011313051916658878,"35":-0.21028678119182587,"36":-0.009320927783846855,"37":0.08166523277759552,"38":-0.22979773581027985,"39":0.0520223043859005,"40":-0.2987329363822937,"41":-0.09666318446397781,"42":-0.25379452109336853,"43":0.14011096954345703,"44":-0.006649293005466461,"45":0.0663214847445488,"46":0.003264396218582988,"47":-0.11018781363964081,"48":-0.07112384587526321,"49":-0.20499271154403687,"50":-0.010374484583735466,"51":0.017836617305874825,"52":-0.15420551598072052,"53":-0.06317152082920074,"54":-0.06369277089834213,"55":-0.14071312546730042,"56":-0.07327002286911011,"57":-0.02680882439017296,"58":0.04545694589614868,"59":-0.15047134459018707,"60":-0.12036024779081345,"61":0.033269982784986496,"62":0.01955387555062771,"63":-0.15171226859092712,"64":0.056534864008426666,"65":-0.0713675245642662,"66":-0.29791584610939026,"67":0.02706134505569935,"68":-0.18108098208904266,"69":0.06054871529340744,"70":-0.17950010299682617,"71":-0.3158462941646576,"72":-0.14293187856674194,"73":-0.12561456859111786,"74":0.004021737724542618,"75":0.06560219079256058,"76":-0.10319891571998596,"77":-0.2723534405231476,"78":-0.03298380225896835,"79":-0.025275155901908875,"80":-0.023491626605391502,"81":0.036056749522686005,"82":0.12798874080181122,"83":-0.3176482319831848,"84":0.14079676568508148,"85":0.13107822835445404,"86":-0.19569873809814453,"87":-0.2326449155807495,"88":-0.1817523092031479,"89":0.09632978588342667,"90":-0.11909641325473785,"91":-0.026185180991888046,"92":-0.061117034405469894,"93":-0.1573340743780136,"94":0.0013818745501339436,"95":-0.18828167021274567,"96":-0.16392439603805542,"97":0.021265370771288872,"98":-0.049540258944034576,"99":-0.03401445969939232,"100":-0.1397099643945694,"101":-0.15035462379455566,"102":-0.17509807646274567,"103":-0.013354345224797726,"104":-0.10323922336101532,"105":-0.12581470608711243,"106":-0.03176160901784897,"107":0.12062810361385345,"108":-0.2752359211444855,"109":-0.23173780739307404,"110":0.021424077451229095,"111":-0.15436217188835144,"112":-0.0694856271147728,"113":0.026276765391230583,"114":-0.3668569028377533,"115":0.048760008066892624,"116":-0.09501691907644272,"117":-0.06954916566610336,"118":0.08652041852474213,"119":-0.3987559378147125,"120":-0.12551504373550415,"121":-0.09086237102746964,"122":-0.2276575267314911,"123":-0.21664243936538696,"124":-0.23041971027851105,"125":0.14903044700622559,"126":-0.22124001383781433,"127":-0.19847996532917023,"128":-0.06877844780683517,"129":-0.15060599148273468,"130":-0.2057795226573944,"131":-0.3353184461593628,"132":-0.14236927032470703,"133":0.01622936502099037,"134":-0.0029975930228829384,"135":-0.05825355648994446,"136":0.04386264458298683,"137":-0.11590094864368439,"138":-0.08953823149204254,"139":-0.2362162172794342,"140":0.17780643701553345,"141":-0.24088069796562195,"142":-0.2093411386013031,"143":0.05243544280529022,"144":-0.18202947080135345,"145":-0.21465902030467987,"146":0.03790539875626564,"147":0.15351732075214386,"148":0.1788703352212906,"149":-0.037020668387413025,"150":-0.09449964761734009,"151":-0.003240965772420168,"152":-0.23578618466854095,"153":-0.1445828229188919,"154":0.011940396390855312,"155":-0.05027396231889725,"156":0.04109178110957146,"157":-0.27674761414527893,"158":-0.07026976346969604,"159":0.10852152109146118,"160":0.07873217761516571,"161":0.01665337011218071,"162":-0.3925703763961792,"163":0.010004277341067791,"164":-0.3372916281223297,"165":-0.23089973628520966,"166":-0.21521277725696564,"167":-0.1542297750711441,"168":-0.1550954133272171,"169":-0.15077249705791473,"170":-0.21355406939983368,"171":-0.09423957020044327,"172":0.03714016452431679,"173":0.11310385167598724,"174":-0.1112743616104126,"175":-0.21180427074432373,"176":-0.20365628600120544,"177":-0.08517178893089294,"178":-0.34570783376693726,"179":0.19614708423614502,"180":0.05739916115999222,"181":-0.03950915113091469,"182":0.12056019902229309,"183":0.08675927668809891,"184":-0.022959308698773384,"185":0.05198659002780914,"186":-0.26082879304885864,"187":-0.07847366482019424,"188":-0.10869157314300537,"189":0.08896169811487198,"190":-0.2154710292816162,"191":-0.05612226575613022,"192":0.07896241545677185,"193":-0.08595919609069824,"194":-0.13881587982177734,"195":-0.1837461292743683,"196":-0.029687752947211266,"197":0.13792668282985687,"198":0.08402813971042633,"199":-0.32237154245376587,"200":-0.24121294915676117,"201":-0.04101734608411789,"202":0.015086580999195576,"203":-0.03531410172581673,"204":-0.03961563855409622,"205":0.0957886129617691,"206":-0.11867476254701614,"207":0.0038559858221560717,"208":-0.020498821511864662,"209":-0.19022655487060547,"210":-0.18755467236042023,"211":0.21927636861801147,"212":0.04771975800395012,"213":0.016204524785280228,"214":-0.05203210189938545,"215":-0.03136507794260979,"216":0.030484555289149284,"217":0.11768641322851181,"218":-0.24919787049293518,"219":-0.07904104143381119,"220":-0.03399769961833954,"221":-0.3665744364261627,"222":-0.06267275661230087,"223":0.13581402599811554,"224":-0.08953087031841278,"225":-0.2785917818546295,"226":-0.15242096781730652,"227":0.003563110250979662,"228":-0.034077707678079605,"229":-0.14915302395820618,"230":-0.2750832140445709,"231":-0.06404604762792587,"232":-0.2790387272834778,"233":0.06439615786075592,"234":-0.21450760960578918,"235":0.15689510107040405,"236":-0.14299127459526062,"237":-0.1833169311285019,"238":-0.3105035126209259,"239":-0.019763438031077385,"240":-0.018803026527166367,"241":-0.06118672713637352,"242":-0.14330027997493744,"243":-0.13590984046459198,"244":-0.168480783700943,"245":0.16346609592437744,"246":-0.27872204780578613,"247":-0.23050540685653687,"248":0.15282399952411652,"249":0.03957719728350639,"250":-0.0973590686917305,"251":0.04155983030796051,"252":-0.35650187730789185,"253":-0.06980250775814056,"254":0.06553430110216141,"255":0.16429837048053741,"256":-0.3568985164165497,"257":-0.1651611477136612,"258":-0.08938205987215042,"259":0.15907913446426392,"260":-0.21785105764865875,"261":-0.2471863031387329,"262":-0.115728959441185,"263":-0.4539251923561096,"264":-0.0009581801132299006,"265":-0.26045680046081543,"266":-0.24614264070987701,"267":-0.1828373670578003,"268":0.09543666243553162,"269":0.020976966246962547,"270":-0.22633367776870728,"271":-0.34756889939308167,"272":0.034991055727005005,"273":-0.03869679942727089,"274":0.04734807461500168,"275":-0.043643519282341,"276":-0.038405291736125946,"277":0.08726231753826141,"278":-0.18139106035232544,"279":0.11764173954725266,"280":0.07150845229625702,"281":0.2590942084789276,"282":-0.12323036044836044,"283":-0.1372145414352417}},"6":{"bias":-2.051588535308838,"weights":{"0":-0.24930347502231598,"1":0.15740825235843658,"2":0.05670428276062012,"3":-0.05645334720611572,"4":-0.08543385565280914,"5":-0.05544132739305496,"6":-0.2059454619884491,"7":-0.06347465515136719,"8":-0.0023935125209391117,"9":0.10072683542966843,"10":-0.29921019077301025,"11":0.02574419043958187,"12":-0.10821478068828583,"13":-0.08124975115060806,"14":-0.10875356942415237,"15":-0.166187584400177,"16":-0.2655717134475708,"17":-0.14038026332855225,"18":-0.20284605026245117,"19":-0.16394276916980743,"20":-0.20676939189434052,"21":-0.024717062711715698,"22":-0.30048051476478577,"23":-0.3064681887626648,"24":-0.17094822227954865,"25":-0.01448109745979309,"26":0.005582194775342941,"27":-0.185064896941185,"28":-0.17901180684566498,"29":0.14953331649303436,"30":-0.19443748891353607,"31":-0.18647073209285736,"32":-0.07628042250871658,"33":-0.21563497185707092,"34":-0.13660509884357452,"35":-0.16972103714942932,"36":-0.1915009617805481,"37":0.14683017134666443,"38":-0.006407234817743301,"39":0.0752856433391571,"40":-0.06362072378396988,"41":0.0205365139991045,"42":0.11326787620782852,"43":-0.1800919771194458,"44":-0.24757851660251617,"45":-0.31242576241493225,"46":-0.14857634902000427,"47":-0.0609823502600193,"48":-0.16614408791065216,"49":-0.02629058249294758,"50":-0.12513044476509094,"51":-0.17380735278129578,"52":-0.09930777549743652,"53":0.07287709414958954,"54":-0.2031088024377823,"55":0.00703525310382247,"56":0.07624989748001099,"57":-0.2742391526699066,"58":-0.1267891228199005,"59":-0.20911464095115662,"60":-0.09665299206972122,"61":-0.11042848974466324,"62":0.14001767337322235,"63":-0.19186106324195862,"64":-0.17982380092144012,"65":-0.10099735110998154,"66":-0.03890899568796158,"67":-0.15315283834934235,"68":-0.025682415813207626,"69":-0.15328408777713776,"70":-0.07781045138835907,"71":-0.11639703810214996,"72":0.01096284855157137,"73":-0.2546566426753998,"74":-0.20106534659862518,"75":0.048670604825019836,"76":-0.462401419878006,"77":-0.16504664719104767,"78":-0.23537082970142365,"79":-0.1913030594587326,"80":-0.14445720613002777,"81":-0.04499717801809311,"82":-0.2409542202949524,"83":-0.3441334366798401,"84":0.08602215349674225,"85":-0.12009633332490921,"86":0.09565990418195724,"87":-0.34591859579086304,"88":-0.008342419750988483,"89":-0.14631235599517822,"90":-0.15688569843769073,"91":-0.040580086410045624,"92":-0.095635786652565,"93":-0.1656731814146042,"94":0.23995794355869293,"95":-0.18347327411174774,"96":-0.09149903059005737,"97":0.08746720850467682,"98":-0.09582523256540298,"99":0.00015632760187145323,"100":-0.21500006318092346,"101":-0.0659087747335434,"102":-0.24327023327350616,"103":-0.021211858838796616,"104":-0.07789678871631622,"105":-0.23250707983970642,"106":0.1058337539434433,"107":-0.17393425107002258,"108":-0.2956189513206482,"109":-0.01565372943878174,"110":-0.19279804825782776,"111":-0.1428842544555664,"112":-0.22026747465133667,"113":0.16409066319465637,"114":-0.2833411991596222,"115":-0.24611639976501465,"116":0.00039878030656836927,"117":0.1663127839565277,"118":-0.13893695175647736,"119":-0.12371614575386047,"120":0.048704203218221664,"121":-0.3341895639896393,"122":-0.030176594853401184,"123":-0.3644959330558777,"124":-0.22264312207698822,"125":-0.13089942932128906,"126":-0.0507083386182785,"127":0.05789786949753761,"128":-0.32860904932022095,"129":-0.007186314556747675,"130":0.009763985872268677,"131":-0.16355901956558228,"132":0.01281915232539177,"133":-0.1783936321735382,"134":-0.08243240416049957,"135":0.04480252414941788,"136":0.010319135151803493,"137":-0.07863879948854446,"138":-0.07001163810491562,"139":0.09599576145410538,"140":-0.058165401220321655,"141":-0.24045851826667786,"142":-0.10836514830589294,"143":0.04321029782295227,"144":0.12710881233215332,"145":-0.19059161841869354,"146":-0.2185554951429367,"147":0.1295597404241562,"148":-0.1343538761138916,"149":-0.14154928922653198,"150":-0.2875240743160248,"151":0.06713437288999557,"152":-0.0963016226887703,"153":-0.1111111268401146,"154":-0.26511308550834656,"155":-0.14581909775733948,"156":-0.10292249172925949,"157":-0.042693331837654114,"158":-0.23284633457660675,"159":-0.26267626881599426,"160":-0.061196330934762955,"161":0.05367333069443703,"162":-0.2814692258834839,"163":-0.3326180875301361,"164":-0.026393722742795944,"165":-0.3035934865474701,"166":-0.17478829622268677,"167":-0.09266211837530136,"168":0.11886510998010635,"169":0.04442160204052925,"170":-0.15199880301952362,"171":0.13221116364002228,"172":0.03158458694815636,"173":0.08038439601659775,"174":-0.20929788053035736,"175":0.056370723992586136,"176":-0.11016245931386948,"177":-0.017269453033804893,"178":0.07351741939783096,"179":-0.04906191676855087,"180":-0.09468839317560196,"181":-0.11458110064268112,"182":-0.2623535096645355,"183":0.0353042297065258,"184":-0.016950862482190132,"185":-0.01027017179876566,"186":-0.15423831343650818,"187":-0.11655828356742859,"188":-0.10649683326482773,"189":-0.16348572075366974,"190":-0.05040721967816353,"191":0.09433618187904358,"192":0.033002253621816635,"193":-0.04746713861823082,"194":-0.014259864576160908,"195":-0.23436389863491058,"196":-0.00012304799747653306,"197":0.14819133281707764,"198":-0.09178055077791214,"199":-0.2513178884983063,"200":-0.3514188230037689,"201":-0.12716743350028992,"202":-0.13462170958518982,"203":-0.041263360530138016,"204":-0.10140863060951233,"205":-0.0009615259477868676,"206":-0.022135721519589424,"207":0.05483628064393997,"208":0.12972186505794525,"209":0.06594870984554291,"210":0.14701054990291595,"211":0.05506341904401779,"212":-0.05956529453396797,"213":-0.22181738913059235,"214":-0.10716748982667923,"215":0.15086494386196136,"216":0.079563207924366,"217":0.05827490985393524,"218":-0.30224788188934326,"219":0.014763488434255123,"220":-0.1667274683713913,"221":-0.15043862164020538,"222":-0.048024069517850876,"223":0.013766971416771412,"224":-0.12921513617038727,"225":-0.17710378766059875,"226":0.05954540893435478,"227":0.03029061295092106,"228":-0.13431896269321442,"229":-0.15022814273834229,"230":-0.14593181014060974,"231":-0.011910359375178814,"232":-0.06868640333414078,"233":-0.06850043684244156,"234":-0.058939676731824875,"235":-0.06980778276920319,"236":-0.08770874887704849,"237":-0.06973202526569366,"238":0.01583220809698105,"239":-0.11268971115350723,"240":-0.20055197179317474,"241":-0.12386942654848099,"242":-0.025242861360311508,"243":-0.08281788975000381,"244":0.006515744142234325,"245":0.05369015410542488,"246":0.12657025456428528,"247":-0.003625940764322877,"248":-0.13877463340759277,"249":-0.19450713694095612,"250":-0.1138588935136795,"251":-0.2181682586669922,"252":0.05199568718671799,"253":-0.2690171003341675,"254":-0.10222484171390533,"255":0.0025378819555044174,"256":-0.3241526782512665,"257":-0.09623877704143524,"258":-0.12394557148218155,"259":-0.20733462274074554,"260":0.05253879353404045,"261":-0.24641390144824982,"262":-0.27347463369369507,"263":-0.19806253910064697,"264":-0.07499179244041443,"265":-0.270246297121048,"266":-0.25152388215065,"267":0.1004670113325119,"268":-0.10476656258106232,"269":-0.1806008219718933,"270":-0.07953983545303345,"271":0.09595095366239548,"272":0.10922955721616745,"273":-0.12879052758216858,"274":0.11489276587963104,"275":-0.03281080722808838,"276":-0.18837091326713562,"277":-0.0790824219584465,"278":0.023807676509022713,"279":-0.1775694042444229,"280":-0.0630590170621872,"281":-0.02302617020905018,"282":-0.03886021301150322,"283":-0.32505810260772705}},"7":{"bias":-2.255361557006836,"weights":{"0":-0.3173392415046692,"1":0.3719232976436615,"2":0.18953576683998108,"3":-0.12710247933864594,"4":-0.057925231754779816,"5":-0.31613993644714355,"6":0.05619368329644203,"7":0.3661942780017853,"8":-0.3244679570198059,"9":-0.10509248077869415,"10":0.1238579973578453,"11":0.09380915015935898,"12":0.26568201184272766,"13":0.12677815556526184,"14":0.052857108414173126,"15":-0.38432541489601135,"16":-0.49084463715553284,"17":-0.16771674156188965,"18":-0.3358061611652374,"19":0.014027603901922703,"20":-0.44740256667137146,"21":0.423640638589859,"22":-0.48990124464035034,"23":0.021756252273917198,"24":-0.17909938097000122,"25":-0.2135128378868103,"26":-0.42900747060775757,"27":-0.028195973485708237,"28":-0.13256466388702393,"29":-0.3629628121852875,"30":-0.15897083282470703,"31":-0.25421467423439026,"32":-0.28363680839538574,"33":-0.4250105321407318,"34":-0.18246954679489136,"35":-0.14123931527137756,"36":-0.1454247534275055,"37":0.2695215046405792,"38":0.5219284892082214,"39":-0.3571878671646118,"40":0.0670468881726265,"41":0.3805469274520874,"42":0.14395023882389069,"43":-0.3604496419429779,"44":-0.3370231091976166,"45":-0.1150643453001976,"46":-0.3137981593608856,"47":0.16033096611499786,"48":-0.20883697271347046,"49":-0.0018835575319826603,"50":-0.06499216705560684,"51":0.003109607147052884,"52":-0.023746918886899948,"53":-0.1441677063703537,"54":-0.17269405722618103,"55":0.17705053091049194,"56":-0.08382502943277359,"57":-0.37640681862831116,"58":-0.38422128558158875,"59":-0.09825997054576874,"60":-0.09520699083805084,"61":-0.37551113963127136,"62":0.17857417464256287,"63":-0.1590401977300644,"64":-0.3799782395362854,"65":-0.4600956439971924,"66":0.12330459803342819,"67":-0.3184601366519928,"68":0.004250762984156609,"69":0.19227731227874756,"70":-0.13848114013671875,"71":0.20809559524059296,"72":-0.050757475197315216,"73":-0.34043532609939575,"74":0.27311137318611145,"75":-0.1141759604215622,"76":-0.3284057676792145,"77":0.004276318475604057,"78":-0.24153877794742584,"79":-0.154959574341774,"80":-0.3318340480327606,"81":-0.15839797258377075,"82":0.10977630317211151,"83":-0.3424363434314728,"84":-0.16585373878479004,"85":-0.27743932604789734,"86":-0.24971340596675873,"87":-0.2792680561542511,"88":-0.061318572610616684,"89":-0.060397885739803314,"90":-0.1289680004119873,"91":-0.11792661249637604,"92":-0.005863179452717304,"93":-0.09664320945739746,"94":0.15710651874542236,"95":-0.28258490562438965,"96":-0.116631880402565,"97":0.08019223064184189,"98":-0.03904590383172035,"99":-0.10499134659767151,"100":-0.1251187026500702,"101":-0.09897163510322571,"102":-0.04461035877466202,"103":-0.10504445433616638,"104":-0.04550248384475708,"105":-0.3048659563064575,"106":0.3507928252220154,"107":-0.19945399463176727,"108":-0.0753689631819725,"109":-0.10407137125730515,"110":-0.29854896664619446,"111":0.07123513519763947,"112":0.13301528990268707,"113":0.24411480128765106,"114":-0.34397563338279724,"115":-0.46173223853111267,"116":0.006192713510245085,"117":0.45849213004112244,"118":-0.22677092254161835,"119":-0.4048944115638733,"120":-0.09976279735565186,"121":-0.1474713534116745,"122":0.0021619130857288837,"123":-0.2591188848018646,"124":0.016159361228346825,"125":0.06027226150035858,"126":-0.13262878358364105,"127":0.0681702196598053,"128":0.37853875756263733,"129":-0.5950697064399719,"130":0.41858091950416565,"131":-0.17656737565994263,"132":-0.1816221922636032,"133":-0.12886904180049896,"134":0.0966615229845047,"135":0.3044504225254059,"136":-0.15449151396751404,"137":0.023037489503622055,"138":-0.08093941956758499,"139":0.5247455835342407,"140":0.1831148862838745,"141":0.0042967721819877625,"142":-0.2247755229473114,"143":-0.2785911560058594,"144":-0.074273481965065,"145":-0.16332969069480896,"146":-0.21234096586704254,"147":0.11136336624622345,"148":-0.05081659182906151,"149":-0.47165969014167786,"150":-0.19708654284477234,"151":-0.008341621607542038,"152":0.06441928446292877,"153":0.21355722844600677,"154":-0.5692486763000488,"155":-0.073148712515831,"156":-0.17017380893230438,"157":-0.02631920389831066,"158":-0.12147648632526398,"159":-0.4323704242706299,"160":-0.00577855808660388,"161":-0.21645595133304596,"162":0.14429783821105957,"163":-0.3960689604282379,"164":0.06761942058801651,"165":0.29397591948509216,"166":-0.14267688989639282,"167":-0.016230590641498566,"168":-0.04185368865728378,"169":-0.11313771456480026,"170":0.19551768898963928,"171":-0.05700432509183884,"172":-0.14402949810028076,"173":-0.05688998103141785,"174":0.028889456763863564,"175":-0.06125292181968689,"176":-0.06320817768573761,"177":0.1760358065366745,"178":0.15695717930793762,"179":-0.2527928650379181,"180":-0.674798846244812,"181":-0.09664162993431091,"182":-0.06564517319202423,"183":-0.3474902808666229,"184":-0.09027638286352158,"185":0.10236480832099915,"186":0.22909219563007355,"187":0.25878310203552246,"188":-0.12696920335292816,"189":-0.40015673637390137,"190":0.027447611093521118,"191":0.005503592547029257,"192":-0.08104643225669861,"193":-0.14487680792808533,"194":-0.1523979902267456,"195":-0.07951676100492477,"196":-0.019724691286683083,"197":-0.09563645720481873,"198":-0.06449612230062485,"199":-0.052966997027397156,"200":-0.017687872052192688,"201":-0.32111477851867676,"202":-0.33993178606033325,"203":-0.15776070952415466,"204":-0.03732225298881531,"205":-0.013416443020105362,"206":0.11946430802345276,"207":0.19839166104793549,"208":-0.2436627745628357,"209":0.36170801520347595,"210":0.01168954186141491,"211":-0.21609605848789215,"212":-0.4482102692127228,"213":-0.5519905686378479,"214":-0.1861567348241806,"215":-0.1027122437953949,"216":0.01747603714466095,"217":-0.0938645675778389,"218":0.08761199563741684,"219":-0.10308726876974106,"220":0.014429176226258278,"221":0.015674341470003128,"222":0.04903102666139603,"223":-0.04438357427716255,"224":-0.12400194257497787,"225":0.009957152418792248,"226":0.03039134480059147,"227":-0.049353085458278656,"228":0.10941287130117416,"229":-0.3459703326225281,"230":0.4564380943775177,"231":0.10152189433574677,"232":-0.14851614832878113,"233":-0.046302277594804764,"234":-0.03171918913722038,"235":-0.08172670006752014,"236":-0.45779645442962646,"237":0.11947783827781677,"238":0.16283878684043884,"239":-0.11985249072313309,"240":-0.2576912045478821,"241":-0.17597416043281555,"242":-0.4325580894947052,"243":-0.1552635133266449,"244":-0.03151620924472809,"245":-0.12921904027462006,"246":-0.11011959612369537,"247":0.23695215582847595,"248":-0.0673476979136467,"249":0.12437624484300613,"250":-0.21994251012802124,"251":-0.2697576582431793,"252":0.3192533552646637,"253":-0.3115047514438629,"254":-0.3578222393989563,"255":-0.19885623455047607,"256":0.053392983973026276,"257":-0.009196958504617214,"258":-0.386325865983963,"259":-0.37857601046562195,"260":0.01760951429605484,"261":-0.3100751042366028,"262":-0.15587085485458374,"263":-0.04665268957614899,"264":0.14492599666118622,"265":-0.16393166780471802,"266":-0.41579052805900574,"267":0.2740018367767334,"268":-0.2980169653892517,"269":0.1819520890712738,"270":-0.2452400028705597,"271":0.10679640620946884,"272":-0.3182477653026581,"273":0.07684624940156937,"274":0.0864170640707016,"275":0.08296109735965729,"276":0.06529084593057632,"277":-0.18802312016487122,"278":-0.23922453820705414,"279":-0.1366761177778244,"280":0.03802517428994179,"281":-0.2798443138599396,"282":0.07392216473817825,"283":-0.25767576694488525}},"8":{"bias":-2.119040012359619,"weights":{"0":-0.22435037791728973,"1":-0.19392123818397522,"2":-0.11636943370103836,"3":-0.029766371473670006,"4":-0.032684214413166046,"5":0.1363392323255539,"6":-0.10022757202386856,"7":-0.09975957870483398,"8":-0.06010587885975838,"9":0.10728806257247925,"10":-0.02455689013004303,"11":-0.19098813831806183,"12":-0.14782987534999847,"13":-0.1582561731338501,"14":0.0807509571313858,"15":-0.11999829858541489,"16":-0.16311794519424438,"17":-0.10289034247398376,"18":-0.2863529324531555,"19":-0.1196211725473404,"20":-0.37827345728874207,"21":-0.12151014804840088,"22":-0.18071235716342926,"23":-0.08687248080968857,"24":-0.3167617619037628,"25":-0.11498084664344788,"26":-0.08795563131570816,"27":-0.06547258794307709,"28":-0.2544277608394623,"29":-0.11313602328300476,"30":-0.22261953353881836,"31":-0.04998116195201874,"32":0.09658082574605942,"33":-0.20202994346618652,"34":-0.212794691324234,"35":-0.1824474036693573,"36":0.04031834378838539,"37":0.026638804003596306,"38":-0.04816797748208046,"39":0.042856138199567795,"40":0.030104074627161026,"41":0.06110754981637001,"42":0.05178484320640564,"43":-0.013598614372313023,"44":-0.18636946380138397,"45":-0.08215172588825226,"46":-0.12583783268928528,"47":0.1069837287068367,"48":0.04085002839565277,"49":0.055150292813777924,"50":-0.25075075030326843,"51":0.03111191652715206,"52":0.13391607999801636,"53":-0.1690419614315033,"54":-0.14780309796333313,"55":0.13101992011070251,"56":0.07046527415513992,"57":-0.28599536418914795,"58":-0.13483095169067383,"59":-0.18345162272453308,"60":-0.10138636827468872,"61":0.0667998194694519,"62":-0.17578646540641785,"63":-0.0675157830119133,"64":-0.09969334304332733,"65":-0.0490679033100605,"66":-0.13507677614688873,"67":-0.12732064723968506,"68":-0.20242072641849518,"69":0.12906356155872345,"70":0.021187594160437584,"71":-0.205768421292305,"72":-0.13734778761863708,"73":-0.07468891888856888,"74":0.003323083044961095,"75":0.11106541752815247,"76":-0.3584018051624298,"77":-0.18673311173915863,"78":-0.05920377001166344,"79":-0.1546928584575653,"80":0.06574194133281708,"81":0.17346809804439545,"82":-0.12946069240570068,"83":-0.320654034614563,"84":-0.08487632125616074,"85":0.08650168031454086,"86":0.08532167971134186,"87":-0.07324452698230743,"88":-0.03236612677574158,"89":-0.17542490363121033,"90":0.06840214878320694,"91":-0.220525860786438,"92":-0.12864883244037628,"93":-0.24531057476997375,"94":-0.12862345576286316,"95":0.011481737717986107,"96":-0.01112673245370388,"97":-0.199250727891922,"98":-0.23609207570552826,"99":-0.11817854642868042,"100":-0.19986940920352936,"101":-0.24090759456157684,"102":0.05520359426736832,"103":-0.0029591599013656378,"104":-0.0514519102871418,"105":0.09240380674600601,"106":-0.05040084570646286,"107":0.017959054559469223,"108":-0.13323362171649933,"109":0.010380779393017292,"110":-0.004479408264160156,"111":-0.13724781572818756,"112":-0.12306272983551025,"113":-0.015474154613912106,"114":-0.4093400835990906,"115":0.014895236119627953,"116":-0.046369876712560654,"117":-0.012093080207705498,"118":-0.09109800308942795,"119":-0.32296332716941833,"120":0.09788678586483002,"121":-0.11035393923521042,"122":0.10609199851751328,"123":-0.27643367648124695,"124":-0.348385751247406,"125":0.000809422112070024,"126":0.028025126084685326,"127":-0.1679905503988266,"128":-0.18027527630329132,"129":0.0474831759929657,"130":-0.15991131961345673,"131":0.05459080636501312,"132":-0.020091045647859573,"133":-0.15883775055408478,"134":0.05233325436711311,"135":0.022145485505461693,"136":-0.2681552469730377,"137":0.04300481081008911,"138":-0.16658228635787964,"139":0.16348519921302795,"140":0.11626947671175003,"141":-0.25115856528282166,"142":-0.20283344388008118,"143":0.1448853462934494,"144":-0.17130814492702484,"145":0.04339858517050743,"146":-0.10073959827423096,"147":-0.02558239735662937,"148":-0.22419944405555725,"149":-0.06377798318862915,"150":-0.009097439236938953,"151":-0.1486542969942093,"152":-0.2017243653535843,"153":-0.22244839370250702,"154":-0.08574704825878143,"155":-0.145873561501503,"156":-0.030240854248404503,"157":-0.014378107152879238,"158":-0.25690793991088867,"159":-0.28512653708457947,"160":-0.07489178329706192,"161":-0.08178675174713135,"162":-0.2027115821838379,"163":-0.10913778096437454,"164":-0.27168136835098267,"165":-0.311580091714859,"166":-0.39522069692611694,"167":-0.0776766911149025,"168":-0.17468643188476562,"169":-0.048129357397556305,"170":-0.19670617580413818,"171":0.0941930040717125,"172":-0.17116282880306244,"173":-0.04358949884772301,"174":0.033127736300230026,"175":-0.2649838924407959,"176":-0.1905342936515808,"177":0.020876659080386162,"178":-0.19010955095291138,"179":-0.17824745178222656,"180":-0.18550585210323334,"181":-0.008370696566998959,"182":-0.07628370821475983,"183":0.028570285066962242,"184":0.07581610232591629,"185":-0.21998381614685059,"186":-0.1527673304080963,"187":0.09713095426559448,"188":-0.03620830923318863,"189":-0.10049998015165329,"190":-0.07978927344083786,"191":-0.02795790694653988,"192":-0.20631428062915802,"193":-0.2602351903915405,"194":-0.23716451227664948,"195":-0.08903845399618149,"196":0.1374458372592926,"197":-0.20061272382736206,"198":-0.2459753155708313,"199":-0.0248655267059803,"200":-0.20812290906906128,"201":-0.19433340430259705,"202":-0.2709490954875946,"203":-0.052686356008052826,"204":-0.12087608873844147,"205":0.12960031628608704,"206":0.07378434389829636,"207":-0.20535306632518768,"208":-0.009370126761496067,"209":-0.10966628789901733,"210":-0.21477454900741577,"211":-0.018658451735973358,"212":0.004976922646164894,"213":-0.28360867500305176,"214":0.05573002249002457,"215":0.13080857694149017,"216":0.11220645904541016,"217":-0.20101875066757202,"218":-0.38001272082328796,"219":-0.22760729491710663,"220":-0.1002555638551712,"221":0.09205514937639236,"222":-0.15135051310062408,"223":-0.19011355936527252,"224":-0.016706766560673714,"225":-0.2560155689716339,"226":0.026769885793328285,"227":-0.18948154151439667,"228":0.013947523199021816,"229":-0.2294546663761139,"230":0.040248945355415344,"231":0.1874149739742279,"232":0.13483020663261414,"233":0.04754777252674103,"234":-0.010301527567207813,"235":-0.2005678117275238,"236":-0.008452697657048702,"237":-0.030971650034189224,"238":0.17429980635643005,"239":-0.11974187940359116,"240":-0.33953404426574707,"241":-0.19506114721298218,"242":0.049527596682310104,"243":-0.24109232425689697,"244":0.11311464756727219,"245":-0.12499342858791351,"246":0.05572757124900818,"247":-0.10288911312818527,"248":-0.17573001980781555,"249":-0.02175254561007023,"250":-0.17177844047546387,"251":-0.025747522711753845,"252":-0.175299271941185,"253":-0.327694833278656,"254":-0.20235440135002136,"255":-0.23919084668159485,"256":-0.36801356077194214,"257":-0.04870373755693436,"258":0.0707453191280365,"259":0.13470186293125153,"260":0.00042868999298661947,"261":-0.30498653650283813,"262":0.0267135389149189,"263":-0.21839913725852966,"264":-0.014821186661720276,"265":-0.32475975155830383,"266":-0.0323757566511631,"267":-0.14050030708312988,"268":-0.15248176455497742,"269":-0.1983187049627304,"270":-0.25722143054008484,"271":-0.1888955682516098,"272":-0.16334491968154907,"273":0.022597461938858032,"274":0.07245901226997375,"275":0.10435585677623749,"276":-0.20505142211914062,"277":-0.03352857008576393,"278":-0.007820872589945793,"279":0.03964538499712944,"280":0.019877517595887184,"281":-0.1647181659936905,"282":0.08147795498371124,"283":-0.30316275358200073}},"9":{"bias":-2.3263943195343018,"weights":{"0":-0.016909031197428703,"1":0.006433187983930111,"2":-0.05754261836409569,"3":-0.23472832143306732,"4":-0.17528629302978516,"5":-0.007819931954145432,"6":-0.2608847916126251,"7":-0.037669021636247635,"8":-0.11006899178028107,"9":-0.08396115154027939,"10":-0.055234625935554504,"11":-0.0038464993704110384,"12":0.03796873614192009,"13":-0.17706042528152466,"14":0.04802925884723663,"15":-0.004037368111312389,"16":-0.19519303739070892,"17":-0.05271344631910324,"18":0.030472617596387863,"19":0.14952674508094788,"20":-0.12167417258024216,"21":-0.04525322839617729,"22":-0.16833718121051788,"23":-0.053759314119815826,"24":-0.30192750692367554,"25":-0.11018866300582886,"26":0.20622359216213226,"27":0.12605221569538116,"28":-0.19993068277835846,"29":-0.20715107023715973,"30":-0.027092667296528816,"31":-0.10947011411190033,"32":0.06846305727958679,"33":-0.008556012064218521,"34":0.059105560183525085,"35":0.01664535142481327,"36":0.11869901418685913,"37":-0.08769099414348602,"38":-0.16458378732204437,"39":-0.25650495290756226,"40":0.1084425300359726,"41":0.007753707934170961,"42":-0.1423882395029068,"43":-0.2597498297691345,"44":-0.32674771547317505,"45":-0.15270830690860748,"46":-0.2489335685968399,"47":-0.011625162325799465,"48":-0.13535891473293304,"49":0.02819957211613655,"50":-0.09978321194648743,"51":-0.14044564962387085,"52":0.13213618099689484,"53":-0.0678412988781929,"54":0.05331640690565109,"55":-0.132888063788414,"56":0.05755813419818878,"57":-0.06222587078809738,"58":-0.3055759072303772,"59":0.08431332558393478,"60":-0.053592782467603683,"61":0.04623160511255264,"62":0.07728641480207443,"63":-0.16265007853507996,"64":-0.199629008769989,"65":-0.02396579273045063,"66":-0.0023806083481758833,"67":-0.24576391279697418,"68":-0.07268211245536804,"69":0.21098092198371887,"70":0.060773201286792755,"71":-0.027219360694289207,"72":0.13980218768119812,"73":-0.2107088267803192,"74":-0.1656266748905182,"75":0.07390134781599045,"76":-0.137136310338974,"77":-0.019585169851779938,"78":-0.2829824984073639,"79":-0.12275053560733795,"80":-0.11813623458147049,"81":0.09121474623680115,"82":-0.06308022141456604,"83":-0.2098914235830307,"84":0.031672775745391846,"85":-0.09887006133794785,"86":0.014161523431539536,"87":-0.110846146941185,"88":-0.07667098194360733,"89":0.1386474370956421,"90":-0.05375617370009422,"91":-0.03780244290828705,"92":0.13549822568893433,"93":0.11418429762125015,"94":0.14224231243133545,"95":-0.17526787519454956,"96":-0.07815690338611603,"97":-0.23122775554656982,"98":-0.08827885240316391,"99":0.008859535679221153,"100":0.0003027773345820606,"101":-0.0641508549451828,"102":-0.058488279581069946,"103":0.13053475320339203,"104":-0.21193240582942963,"105":-0.018384164199233055,"106":0.06810741126537323,"107":-0.08180368691682816,"108":-0.2555234134197235,"109":-0.18473964929580688,"110":-0.2564202547073364,"111":-0.24026428163051605,"112":-0.10193847864866257,"113":-0.18837407231330872,"114":-0.20130284130573273,"115":-0.3260272741317749,"116":-0.20381242036819458,"117":0.01612251251935959,"118":-0.24437883496284485,"119":-0.21694432199001312,"120":-0.007914979010820389,"121":-0.25088921189308167,"122":-0.013633692637085915,"123":-0.3567794859409332,"124":-0.19748613238334656,"125":-0.12783557176589966,"126":-0.1627742052078247,"127":-0.029540207237005234,"128":-0.09101587533950806,"129":-0.04707914590835571,"130":-0.19421635568141937,"131":-0.20080849528312683,"132":0.06126032769680023,"133":-0.14096225798130035,"134":0.12624792754650116,"135":0.17129848897457123,"136":-0.2332696169614792,"137":-0.17955633997917175,"138":-0.027940331026911736,"139":-0.19334568083286285,"140":-0.024876447394490242,"141":0.006462595891207457,"142":-0.015578754246234894,"143":0.09150242805480957,"144":0.07886489480733871,"145":-0.18431219458580017,"146":-0.1774977147579193,"147":-0.16595128178596497,"148":-0.120820552110672,"149":-0.11579171568155289,"150":-0.02820528857409954,"151":-0.1686796098947525,"152":0.047208480536937714,"153":0.08200045675039291,"154":-0.22383782267570496,"155":0.17826390266418457,"156":0.12418889254331589,"157":-0.06583070009946823,"158":0.05906445533037186,"159":-0.09750445932149887,"160":-0.30045270919799805,"161":-0.21404874324798584,"162":-0.2973670959472656,"163":0.051101069897413254,"164":-0.26919618248939514,"165":-0.1841975301504135,"166":-0.30549320578575134,"167":0.08758130669593811,"168":-0.07868704199790955,"169":-0.13799504935741425,"170":0.0998559519648552,"171":-0.15436464548110962,"172":-0.09783010929822922,"173":0.04142677038908005,"174":-0.05087055265903473,"175":-0.04337436705827713,"176":-0.10189368575811386,"177":0.10511898994445801,"178":0.09690457582473755,"179":-0.17117978632450104,"180":-0.12706756591796875,"181":-0.058820940554142,"182":0.0050739711150527,"183":-0.1321134716272354,"184":-0.1326172649860382,"185":-0.11980246007442474,"186":-0.13095878064632416,"187":-0.12599386274814606,"188":-0.12644891440868378,"189":-0.2560249865055084,"190":-0.027233395725488663,"191":-0.10845382511615753,"192":0.0832577496767044,"193":-0.15562130510807037,"194":0.022936396300792694,"195":-0.1043330654501915,"196":-0.0673549473285675,"197":0.03451640531420708,"198":-0.07041911035776138,"199":-0.23404653370380402,"200":-0.13813745975494385,"201":-0.14360873401165009,"202":-0.25700902938842773,"203":-0.023091275244951248,"204":0.0988384410738945,"205":0.11830474436283112,"206":-0.0017050119349732995,"207":0.008265949785709381,"208":0.0012809262843802571,"209":-0.0800967812538147,"210":-0.2356463223695755,"211":-0.15609712898731232,"212":-0.10849731415510178,"213":-0.047033779323101044,"214":-0.2023957520723343,"215":-0.13635794818401337,"216":-0.0422198548913002,"217":-0.20223963260650635,"218":-0.32675185799598694,"219":-0.1324883997440338,"220":0.1022065058350563,"221":-0.19238917529582977,"222":-0.06479581445455551,"223":-0.13953574001789093,"224":0.04506373777985573,"225":-0.31290650367736816,"226":-0.02861064113676548,"227":0.15163198113441467,"228":-0.22767166793346405,"229":-0.08311117440462112,"230":-0.12479054182767868,"231":0.14353212714195251,"232":0.0032239898573607206,"233":0.03207969292998314,"234":0.015637211501598358,"235":0.10352854430675507,"236":-0.08503595739603043,"237":-0.24349407851696014,"238":0.09515771269798279,"239":0.010786319151520729,"240":-0.025742245838046074,"241":0.1384415179491043,"242":0.07883536070585251,"243":-0.19929493963718414,"244":-0.07347995042800903,"245":0.025398055091500282,"246":-0.0680026039481163,"247":0.08899322897195816,"248":-0.06163610517978668,"249":0.13669545948505402,"250":0.07569503039121628,"251":-0.09603800624608994,"252":-0.19190822541713715,"253":-0.2612614631652832,"254":0.07632780075073242,"255":-0.17902299761772156,"256":-0.07492546737194061,"257":-0.13721562922000885,"258":-0.1595785766839981,"259":-0.09037630259990692,"260":-0.025940416380763054,"261":-0.407634437084198,"262":-0.1698082536458969,"263":-0.14391708374023438,"264":-0.032256487756967545,"265":-0.21765750646591187,"266":-0.060507144778966904,"267":0.04993439093232155,"268":-0.24498692154884338,"269":-0.04783206060528755,"270":-0.27658581733703613,"271":-0.045380376279354095,"272":-0.16430331766605377,"273":0.05490613728761673,"274":-0.189553901553154,"275":-0.1423696130514145,"276":-0.1962214559316635,"277":-0.1500641256570816,"278":0.026120705530047417,"279":-0.2755824029445648,"280":0.010613800957798958,"281":0.0433398075401783,"282":0.1910007894039154,"283":-0.07219257950782776}},"10":{"bias":-2.1430091857910156,"weights":{"0":-0.04795784130692482,"1":0.0517074391245842,"2":0.20224519073963165,"3":-0.21853117644786835,"4":-0.2300708144903183,"5":-0.02188209444284439,"6":0.11165536940097809,"7":0.04822421446442604,"8":-0.13629977405071259,"9":-0.07702437788248062,"10":-0.2579127550125122,"11":-0.001299750991165638,"12":-0.14330396056175232,"13":-0.20031358301639557,"14":0.09335000067949295,"15":-0.009450536221265793,"16":-0.25333020091056824,"17":-0.1855364292860031,"18":-0.2007623165845871,"19":0.07856716960668564,"20":-0.09551183879375458,"21":0.06720740348100662,"22":0.016148600727319717,"23":-0.10888570547103882,"24":-0.17080655694007874,"25":-0.11615213006734848,"26":-0.07813107967376709,"27":-0.0659080296754837,"28":-0.010348484851419926,"29":0.13416451215744019,"30":-0.123944953083992,"31":0.10016077011823654,"32":0.10118012875318527,"33":-0.003358407411724329,"34":0.060370832681655884,"35":-0.0644904375076294,"36":-0.11228003352880478,"37":-0.1354614943265915,"38":-0.06535624712705612,"39":-0.16675564646720886,"40":-0.23028671741485596,"41":0.18862749636173248,"42":-0.03837292268872261,"43":0.03604451194405556,"44":-0.202717125415802,"45":-0.27396124601364136,"46":-0.15888355672359467,"47":-0.1495889127254486,"48":0.02555782161653042,"49":-0.15205956995487213,"50":0.043747007846832275,"51":-0.03648332506418228,"52":-0.0033718361519277096,"53":-0.07370761036872864,"54":-0.05287676304578781,"55":0.12079299986362457,"56":-0.15075570344924927,"57":-0.14996953308582306,"58":-0.38118723034858704,"59":-0.061635494232177734,"60":-0.22963030636310577,"61":-0.11384012550115585,"62":-0.02417082153260708,"63":0.054272908717393875,"64":0.08755990117788315,"65":-0.2615923583507538,"66":-0.10266843438148499,"67":-0.030871428549289703,"68":-0.18212485313415527,"69":-0.037761181592941284,"70":-0.25846540927886963,"71":-0.2307802438735962,"72":0.015878956764936447,"73":-0.1976664960384369,"74":0.017892399802803993,"75":-0.1360599845647812,"76":-0.3584660589694977,"77":-0.0839654728770256,"78":-0.18096168339252472,"79":-0.12209951132535934,"80":-0.1858876347541809,"81":-0.07495702058076859,"82":-0.01158593874424696,"83":-0.21915903687477112,"84":-0.05448004603385925,"85":-0.027617311105132103,"86":-0.0022999111097306013,"87":-0.0505613274872303,"88":-0.12737497687339783,"89":0.013096053153276443,"90":-0.11835368722677231,"91":0.058534491807222366,"92":-0.08225218951702118,"93":0.03200988098978996,"94":0.19398018717765808,"95":-0.1574953943490982,"96":-0.1405741274356842,"97":0.07825621962547302,"98":-0.27360785007476807,"99":0.07529664039611816,"100":-0.08953871577978134,"101":-0.1362130045890808,"102":0.0181839931756258,"103":-0.05894836410880089,"104":-0.15803949534893036,"105":-0.05951665714383125,"106":0.02842564694583416,"107":-0.15293467044830322,"108":-0.048045795410871506,"109":0.05812949314713478,"110":-0.008577331900596619,"111":-0.15015706419944763,"112":-0.018516330048441887,"113":0.021855177357792854,"114":-0.18615639209747314,"115":-0.018784647807478905,"116":-0.16772548854351044,"117":-0.19890330731868744,"118":-0.13356105983257294,"119":-0.31368011236190796,"120":-0.23500238358974457,"121":-0.14396850764751434,"122":0.03677581250667572,"123":-0.22411203384399414,"124":-0.3307173252105713,"125":0.04244821146130562,"126":-0.15073934197425842,"127":0.1296999603509903,"128":-0.11181699484586716,"129":-0.24981160461902618,"130":-0.048656683415174484,"131":-0.06788300722837448,"132":-0.21298667788505554,"133":-0.174287810921669,"134":-0.12075121700763702,"135":0.10565485805273056,"136":-0.0573999360203743,"137":-0.29382553696632385,"138":-0.01213815901428461,"139":-0.04786762595176697,"140":0.014483034610748291,"141":-0.1572890281677246,"142":-0.09185397624969482,"143":-0.04658443480730057,"144":0.025214197114109993,"145":-0.07278076559305191,"146":-0.12802022695541382,"147":-0.15960952639579773,"148":-0.11956468224525452,"149":-0.030215686187148094,"150":-0.04630134999752045,"151":0.04555089399218559,"152":-0.1375659555196762,"153":-0.19874243438243866,"154":-0.25807157158851624,"155":-0.09384948760271072,"156":-0.19207605719566345,"157":0.015098336152732372,"158":-0.14323239028453827,"159":-0.25761979818344116,"160":-0.25745031237602234,"161":-0.2300657331943512,"162":-0.17225134372711182,"163":-0.2393176257610321,"164":-0.13227242231369019,"165":-0.09645448625087738,"166":-0.040598563849925995,"167":0.15297098457813263,"168":-0.005231178365647793,"169":-0.2818666696548462,"170":-0.12031377851963043,"171":-0.01220015250146389,"172":-0.047795284539461136,"173":0.0386914499104023,"174":0.035959772765636444,"175":0.11883988976478577,"176":-0.1551041156053543,"177":0.08230917155742645,"178":0.03959839046001434,"179":-0.11881733685731888,"180":-0.18851517140865326,"181":-0.018826717510819435,"182":-0.10104290395975113,"183":-0.035119518637657166,"184":-0.19455257058143616,"185":-0.21030732989311218,"186":-0.05184698477387428,"187":-0.2517717182636261,"188":-0.2821069359779358,"189":-0.06753242760896683,"190":-0.02987794391810894,"191":-0.14237236976623535,"192":-0.2783429026603699,"193":-0.223395437002182,"194":-0.16156889498233795,"195":0.001716000260785222,"196":-0.11643627285957336,"197":-0.19981108605861664,"198":0.02990914136171341,"199":-0.082310251891613,"200":-0.2857307493686676,"201":-0.2604687809944153,"202":0.0017230353550985456,"203":0.05100736767053604,"204":0.11256606876850128,"205":-0.20383352041244507,"206":-0.10150792449712753,"207":-0.09582352638244629,"208":-0.2125447690486908,"209":0.08256515115499496,"210":-0.17516478896141052,"211":0.10289914160966873,"212":-0.1563791036605835,"213":-0.32776597142219543,"214":-0.03690943494439125,"215":0.02465246431529522,"216":-0.1367763876914978,"217":-0.17249128222465515,"218":-0.176797017455101,"219":-0.19912728667259216,"220":-0.12519173324108124,"221":-0.07071997970342636,"222":-0.0033510031644254923,"223":-0.11832703649997711,"224":-0.01377085316926241,"225":-0.2703651189804077,"226":-0.12744812667369843,"227":-0.032091621309518814,"228":-0.2693949043750763,"229":-0.18613485991954803,"230":-0.030262548476457596,"231":-0.06547077745199203,"232":-0.13538852334022522,"233":-0.2423085868358612,"234":-0.1439947634935379,"235":-0.07832653820514679,"236":0.11908241361379623,"237":-0.14179565012454987,"238":0.014725271612405777,"239":-0.17451916635036469,"240":-0.1993749886751175,"241":-0.06257320940494537,"242":-0.12256154417991638,"243":-0.2792714536190033,"244":-0.2094096541404724,"245":-0.005989850964397192,"246":-0.08858884125947952,"247":-0.1343739777803421,"248":0.07310642302036285,"249":-0.14428775012493134,"250":-0.32418322563171387,"251":-0.13963258266448975,"252":-0.194181889295578,"253":-0.27307096123695374,"254":0.018425941467285156,"255":-0.12938225269317627,"256":-0.1682378053665161,"257":0.07409516721963882,"258":-0.18888553977012634,"259":-0.24051207304000854,"260":0.028050044551491737,"261":-0.16601766645908356,"262":0.08009428530931473,"263":-0.20014439523220062,"264":0.03130678832530975,"265":-0.22420307993888855,"266":-0.021566877141594887,"267":0.09769123792648315,"268":-0.1276582032442093,"269":0.1091662049293518,"270":-0.31760507822036743,"271":-0.2767326235771179,"272":0.09856470674276352,"273":-0.07812241464853287,"274":-0.1930117905139923,"275":-0.09599178284406662,"276":0.05037813261151314,"277":-0.1993231326341629,"278":0.010589143261313438,"279":-0.22780117392539978,"280":-0.18975891172885895,"281":0.08842547237873077,"282":-0.1938324123620987,"283":-0.1646953970193863}},"11":{"bias":-2.1798031330108643,"weights":{"0":-0.23677626252174377,"1":0.03676864132285118,"2":-0.1636226922273636,"3":-0.20398634672164917,"4":-0.24801552295684814,"5":0.11794230341911316,"6":-0.23504427075386047,"7":0.029163582250475883,"8":-0.0005766425747424364,"9":0.08801215142011642,"10":-0.19832326471805573,"11":-0.11447781324386597,"12":-0.20914976298809052,"13":-0.17895953357219696,"14":-0.1330699920654297,"15":-0.15781834721565247,"16":-0.12616978585720062,"17":-0.18753238022327423,"18":-0.22169847786426544,"19":0.13070917129516602,"20":-0.3493892252445221,"21":-0.04439718276262283,"22":-0.14396627247333527,"23":-0.2751234471797943,"24":-0.08677402883768082,"25":-0.012556356377899647,"26":0.12383610755205154,"27":-0.10690019279718399,"28":-0.10373799502849579,"29":0.005369695834815502,"30":0.04920193552970886,"31":-0.20034390687942505,"32":0.12717467546463013,"33":-0.19972674548625946,"34":-0.11744636297225952,"35":0.012066495604813099,"36":-0.2532746493816376,"37":-0.03373510017991066,"38":-0.03198545053601265,"39":0.00958606693893671,"40":0.01819208636879921,"41":-0.07533348351716995,"42":-0.06552702933549881,"43":-0.1288357824087143,"44":-0.11186721920967102,"45":-0.22096925973892212,"46":-0.14661172032356262,"47":-0.14278024435043335,"48":-0.06690671294927597,"49":-0.012478187680244446,"50":-0.14395081996917725,"51":-0.26965847611427307,"52":-0.006829585414379835,"53":-0.08374079316854477,"54":-0.1281871646642685,"55":0.1468561291694641,"56":0.13110046088695526,"57":-0.17942555248737335,"58":-0.07191604375839233,"59":0.007535640615969896,"60":-0.29153972864151,"61":-0.07339798659086227,"62":-0.1580205261707306,"63":-0.20879405736923218,"64":0.05181266367435455,"65":-0.15410254895687103,"66":-0.1623241901397705,"67":-0.17918601632118225,"68":-0.04279535636305809,"69":0.10165078192949295,"70":-0.10535933822393417,"71":-0.25368306040763855,"72":0.11026953160762787,"73":-0.2492981106042862,"74":-0.062496330589056015,"75":-0.133842334151268,"76":-0.3437885642051697,"77":-0.2125645875930786,"78":0.013880902901291847,"79":-0.04995057359337807,"80":0.03783317282795906,"81":0.037129469215869904,"82":-0.05953783541917801,"83":-0.12249480187892914,"84":0.03011973388493061,"85":0.18836618959903717,"86":0.02102745696902275,"87":-0.34178173542022705,"88":-0.11377757042646408,"89":-0.0804731622338295,"90":-0.13628579676151276,"91":-0.1559910774230957,"92":-0.1912175714969635,"93":0.00002979371311084833,"94":0.1248813346028328,"95":0.16902011632919312,"96":-0.2197938859462738,"97":-0.18052206933498383,"98":-0.015776880085468292,"99":0.012159467674791813,"100":-0.009628990665078163,"101":-0.14913633465766907,"102":0.02560097724199295,"103":-0.17513269186019897,"104":-0.0786522701382637,"105":-0.12185639142990112,"106":-0.03658471256494522,"107":-0.04137431085109711,"108":-0.13197973370552063,"109":0.012705983594059944,"110":-0.08131054788827896,"111":-0.18967899680137634,"112":-0.1398971974849701,"113":0.057238899171352386,"114":-0.16416265070438385,"115":0.10990765690803528,"116":0.06550661474466324,"117":-0.14840807020664215,"118":-0.0755394771695137,"119":-0.32459360361099243,"120":-0.010655851103365421,"121":-0.027520714327692986,"122":0.1361018866300583,"123":-0.2020607739686966,"124":-0.31984618306159973,"125":-0.0378517284989357,"126":0.11368348449468613,"127":-0.21755187213420868,"128":-0.08576981723308563,"129":0.04162424057722092,"130":-0.010326534509658813,"131":0.019985269755125046,"132":0.019889308139681816,"133":0.06721551716327667,"134":0.051809705793857574,"135":0.07197446376085281,"136":-0.11411608010530472,"137":-0.13441102206707,"138":-0.21937446296215057,"139":0.05345055088400841,"140":-0.06518002599477768,"141":-0.06466948240995407,"142":0.08976048976182938,"143":0.11076251417398453,"144":-0.03582242131233215,"145":0.1547207534313202,"146":-0.03619527071714401,"147":-0.12739676237106323,"148":0.1064261868596077,"149":-0.22329995036125183,"150":-0.08823203295469284,"151":0.07860409468412399,"152":-0.079622782766819,"153":-0.14518298208713531,"154":-0.10195715725421906,"155":0.025105588138103485,"156":-0.1533762812614441,"157":-0.25223109126091003,"158":-0.07071782648563385,"159":-0.24213093519210815,"160":-0.10440567880868912,"161":0.06861366331577301,"162":-0.26185160875320435,"163":-0.002854721387848258,"164":0.0034372853115200996,"165":-0.23342522978782654,"166":-0.15171633660793304,"167":-0.19442971050739288,"168":-0.03684482350945473,"169":0.03681400045752525,"170":-0.1745239943265915,"171":0.008190921507775784,"172":-0.023811256512999535,"173":0.11275304853916168,"174":-0.19304248690605164,"175":-0.10839293897151947,"176":0.06650861352682114,"177":-0.03550437465310097,"178":-0.18955665826797485,"179":-0.1427210569381714,"180":0.041589222848415375,"181":-0.18391184508800507,"182":0.12750832736492157,"183":-0.20056404173374176,"184":-0.17505444586277008,"185":-0.0647716149687767,"186":-0.16453470289707184,"187":0.059666283428668976,"188":-0.21159976720809937,"189":-0.09944833070039749,"190":0.016760095953941345,"191":0.11282316595315933,"192":-0.2256445586681366,"193":-0.1863182783126831,"194":-0.12890802323818207,"195":-0.03640735149383545,"196":0.06913413852453232,"197":-0.15406084060668945,"198":-0.005621321499347687,"199":-0.13561396300792694,"200":-0.04527788981795311,"201":-0.25879761576652527,"202":-0.24133524298667908,"203":-0.24232199788093567,"204":-0.17179523408412933,"205":0.12519113719463348,"206":-0.12273543328046799,"207":-0.21164266765117645,"208":-0.208165243268013,"209":-0.21182063221931458,"210":0.0705738514661789,"211":-0.15878145396709442,"212":-0.19480755925178528,"213":-0.2478512078523636,"214":-0.0713164284825325,"215":-0.06965404003858566,"216":-0.16036683320999146,"217":0.013989207334816456,"218":-0.18165229260921478,"219":-0.26522761583328247,"220":-0.10928773134946823,"221":-0.27515000104904175,"222":-0.15281960368156433,"223":0.09990948438644409,"224":-0.18639764189720154,"225":-0.30774110555648804,"226":0.13242767751216888,"227":0.0025129602290689945,"228":-0.29994383454322815,"229":-0.34535789489746094,"230":-0.28380998969078064,"231":-0.1625104546546936,"232":-0.2679298222064972,"233":-0.15215235948562622,"234":-0.017651300877332687,"235":0.0686599388718605,"236":-0.011115055531263351,"237":-0.002815840533003211,"238":0.053856611251831055,"239":-0.050403155386447906,"240":-0.16499127447605133,"241":0.11498180031776428,"242":-0.13680844008922577,"243":-0.03488023579120636,"244":0.12238188087940216,"245":0.1330443173646927,"246":-0.014422568492591381,"247":0.008165803737938404,"248":-0.011030755005776882,"249":-0.0667787492275238,"250":-0.2155570685863495,"251":-0.061578169465065,"252":-0.17817555367946625,"253":-0.05729121342301369,"254":-0.18408018350601196,"255":0.037109289318323135,"256":-0.2782421112060547,"257":-0.16672106087207794,"258":0.12699489295482635,"259":-0.21166867017745972,"260":-0.05156754329800606,"261":-0.2148950695991516,"262":-0.12502743303775787,"263":-0.3255964517593384,"264":-0.16793935000896454,"265":-0.2986665964126587,"266":-0.2918860614299774,"267":-0.05939695984125137,"268":0.13682496547698975,"269":-0.001800715341232717,"270":-0.18667051196098328,"271":-0.21072998642921448,"272":0.03264181315898895,"273":-0.057264428585767746,"274":-0.20169386267662048,"275":0.16898272931575775,"276":-0.015481989830732346,"277":0.11638911813497543,"278":-0.25275561213493347,"279":0.05123232677578926,"280":-0.08729948848485947,"281":0.16331341862678528,"282":-0.03204292804002762,"283":-0.296133816242218}},"12":{"bias":-2.157061815261841,"weights":{"0":-0.08442787081003189,"1":0.07944126427173615,"2":0.00596559327095747,"3":0.12140162289142609,"4":0.043722860515117645,"5":-0.1115604043006897,"6":-0.18839362263679504,"7":-0.06748282164335251,"8":-0.2301078885793686,"9":0.04690694063901901,"10":-0.21146804094314575,"11":-0.2267347127199173,"12":-0.2319827526807785,"13":0.09540500491857529,"14":-0.02580440044403076,"15":-0.19584044814109802,"16":-0.2119353711605072,"17":0.03433289751410484,"18":0.08655446767807007,"19":0.06938282400369644,"20":-0.05797300115227699,"21":0.04778484255075455,"22":-0.3079780638217926,"23":-0.06732182949781418,"24":-0.16925624012947083,"25":-0.22953109443187714,"26":-0.0011936668306589127,"27":0.09481070190668106,"28":-0.18493565917015076,"29":-0.18433170020580292,"30":-0.15931443870067596,"31":-0.21084962785243988,"32":-0.12516897916793823,"33":0.08980460464954376,"34":-0.2678071856498718,"35":-0.27084848284721375,"36":-0.07554005086421967,"37":-0.14136984944343567,"38":-0.10530528426170349,"39":-0.12038946151733398,"40":0.12000656127929688,"41":-0.05033378675580025,"42":0.12337373197078705,"43":-0.2656369209289551,"44":-0.022532138973474503,"45":0.0380653515458107,"46":-0.24302539229393005,"47":-0.0818532332777977,"48":-0.1816445291042328,"49":-0.003923692274838686,"50":0.013617629185318947,"51":-0.1174074187874794,"52":-0.08220672607421875,"53":0.09659033268690109,"54":-0.16377291083335876,"55":0.19269920885562897,"56":0.004542359616607428,"57":-0.11471220850944519,"58":-0.10108722746372223,"59":-0.2517544627189636,"60":-0.2310943454504013,"61":0.0637696161866188,"62":-0.11664997786283493,"63":0.09970971196889877,"64":-0.180550217628479,"65":-0.1066242977976799,"66":0.07828579097986221,"67":-0.27134186029434204,"68":0.10155639052391052,"69":0.17526043951511383,"70":-0.15930259227752686,"71":-0.22842805087566376,"72":0.05345373973250389,"73":-0.21542160212993622,"74":0.10945726931095123,"75":-0.08748430013656616,"76":-0.4509962797164917,"77":-0.14337994158267975,"78":-0.1299479901790619,"79":-0.12290801852941513,"80":-0.14245520532131195,"81":-0.02953876368701458,"82":-0.2663608193397522,"83":-0.3992116153240204,"84":0.007996169850230217,"85":-0.05501689016819,"86":-0.16532185673713684,"87":-0.09176812320947647,"88":-0.0473640039563179,"89":-0.02364474907517433,"90":0.02973649650812149,"91":0.15710149705410004,"92":-0.19113001227378845,"93":-0.19604842364788055,"94":0.06561679393053055,"95":-0.13182495534420013,"96":-0.1506839245557785,"97":-0.11228805780410767,"98":-0.18908247351646423,"99":-0.020422309637069702,"100":-0.0463176891207695,"101":-0.23431910574436188,"102":0.1317238211631775,"103":0.13133157789707184,"104":-0.00951608456671238,"105":-0.22934506833553314,"106":-0.08876047283411026,"107":-0.10795699805021286,"108":-0.30974364280700684,"109":0.12904733419418335,"110":-0.28706952929496765,"111":-0.10037397593259811,"112":-0.07392876595258713,"113":0.10667066276073456,"114":-0.3395770192146301,"115":-0.16647405922412872,"116":-0.02068423479795456,"117":-0.20392145216464996,"118":-0.20400387048721313,"119":-0.18915946781635284,"120":-0.07919774949550629,"121":-0.23914974927902222,"122":0.09146001189947128,"123":-0.17655937373638153,"124":-0.15570364892482758,"125":-0.16778171062469482,"126":-0.10401332378387451,"127":0.07596056908369064,"128":-0.1609337329864502,"129":-0.2194530963897705,"130":0.02935999259352684,"131":-0.049397651106119156,"132":0.11206624656915665,"133":-0.0393134281039238,"134":-0.012140737846493721,"135":-0.09926315397024155,"136":-0.18733972311019897,"137":0.07765108346939087,"138":-0.21532467007637024,"139":0.003128309966996312,"140":0.04678653925657272,"141":-0.34092676639556885,"142":-0.10648547857999802,"143":0.042365554720163345,"144":-0.0511191263794899,"145":-0.02433127909898758,"146":-0.16403575241565704,"147":0.0066366964019834995,"148":-0.15884743630886078,"149":-0.03534279391169548,"150":-0.2826017737388611,"151":-0.14286930859088898,"152":-0.17765067517757416,"153":-0.28846117854118347,"154":-0.07062431424856186,"155":0.003925959579646587,"156":0.05201950669288635,"157":-0.032378312200307846,"158":-0.2620895206928253,"159":0.007799218874424696,"160":-0.19382250308990479,"161":0.00357186165638268,"162":-0.20560665428638458,"163":-0.00990594644099474,"164":0.028478115797042847,"165":-0.07170747965574265,"166":-0.29722702503204346,"167":-0.025644635781645775,"168":-0.1754632443189621,"169":-0.0389045849442482,"170":-0.08852343261241913,"171":-0.010380600579082966,"172":0.05891216918826103,"173":-0.11065265536308289,"174":-0.02982274256646633,"175":0.04753532260656357,"176":-0.13813495635986328,"177":0.16008883714675903,"178":-0.15760035812854767,"179":-0.25136998295783997,"180":-0.10954447090625763,"181":-0.24381612241268158,"182":-0.06602243334054947,"183":-0.029544781893491745,"184":-0.19772662222385406,"185":0.004645172506570816,"186":-0.17096520960330963,"187":-0.19094255566596985,"188":-0.17732219398021698,"189":-0.06980004906654358,"190":-0.24498245120048523,"191":-0.09426102787256241,"192":0.01775655522942543,"193":-0.2851833403110504,"194":0.16401641070842743,"195":-0.06057293713092804,"196":-0.20907700061798096,"197":-0.13798938691616058,"198":0.09524510055780411,"199":-0.251474529504776,"200":-0.31064003705978394,"201":-0.2537003457546234,"202":-0.09352106600999832,"203":-0.06639008969068527,"204":-0.028176022693514824,"205":-0.17868636548519135,"206":-0.2155400663614273,"207":-0.024100149050354958,"208":0.09006120264530182,"209":-0.199692040681839,"210":0.05787530913949013,"211":-0.2511918246746063,"212":0.04919413477182388,"213":-0.03402756154537201,"214":-0.04443288594484329,"215":0.1198340579867363,"216":-0.10602318495512009,"217":-0.1955413818359375,"218":-0.2665576636791229,"219":-0.032190680503845215,"220":0.04539388045668602,"221":-0.20651522278785706,"222":-0.31061992049217224,"223":-0.04920390993356705,"224":-0.1699109822511673,"225":-0.06634290516376495,"226":-0.16990026831626892,"227":0.08963099122047424,"228":-0.036272622644901276,"229":-0.05396580696105957,"230":-0.18895579874515533,"231":0.052289292216300964,"232":-0.10671836882829666,"233":0.1119510605931282,"234":-0.0013505868846550584,"235":0.12570886313915253,"236":-0.022484110668301582,"237":-0.167018324136734,"238":-0.08716806024312973,"239":-0.24562200903892517,"240":-0.021446505561470985,"241":0.17739182710647583,"242":0.04735903441905975,"243":-0.15658994019031525,"244":-0.21451805531978607,"245":0.032382868230342865,"246":-0.11053356528282166,"247":-0.08622603118419647,"248":-0.08755133301019669,"249":0.046454351395368576,"250":-0.14408884942531586,"251":-0.1445010006427765,"252":0.020269617438316345,"253":-0.1196361854672432,"254":0.08417665958404541,"255":-0.08155666291713715,"256":-0.20397379994392395,"257":-0.16273848712444305,"258":-0.053282614797353745,"259":0.06166088581085205,"260":-0.18472161889076233,"261":-0.3736428916454315,"262":0.04280870035290718,"263":-0.20118461549282074,"264":-0.03932289406657219,"265":-0.048405591398477554,"266":-0.01221565529704094,"267":-0.12973381578922272,"268":0.03973191976547241,"269":-0.14868159592151642,"270":-0.3946985602378845,"271":-0.027839498594403267,"272":-0.036572445183992386,"273":-0.14314492046833038,"274":-0.035890936851501465,"275":-0.07859627902507782,"276":0.03074895776808262,"277":0.06372478604316711,"278":-0.18990151584148407,"279":-0.05776656046509743,"280":-0.24564658105373383,"281":-0.08040120452642441,"282":0.1465972661972046,